protection -0.26041001081466675 0.009347000159323215 -1.277899980545044 0.9399700164794922 0.13463999330997467 0.28652000427246094 0.4756700098514557 -0.5184699892997742 0.6833699941635132 -0.6862099766731262 0.25913000106811523 0.29725000262260437 -2.7242000102996826 0.3847300112247467 1.25600004196167 0.9254199862480164 -0.10192999988794327 0.1596599966287613 0.0022934998851269484 -0.3875899910926819 -1.0683000087738037 -0.5366100072860718 0.006115600001066923 0.15376000106334686 0.3549000024795532 0.5984600186347961 0.08532900363206863 0.8782899975776672 0.21870000660419464 1.0113999843597412 -0.006921399850398302 -0.51214998960495 -0.27296000719070435 -0.8319799900054932 0.8566399812698364 -0.5214400291442871 -0.46560999751091003 0.9842900037765503 -0.6712200045585632 -0.9612900018692017 0.7888100147247314 -0.6132299900054932 0.2655099928379059 -0.394569993019104 0.5829100012779236 -0.5644299983978271 0.305649995803833 0.04157700017094612 0.8367699980735779 -0.45295000076293945
headsets -0.026822999119758606 -0.09285899996757507 -1.0312000513076782 0.908840000629425 -0.4906800091266632 0.3700999915599823 0.631850004196167 -0.6149600148200989 0.5775899887084961 -1.0434000492095947 -0.21303999423980713 1.0892000198364258 -0.6775599718093872 0.39059001207351685 0.12728999555110931 -0.39506998658180237 0.07077900320291519 -0.5348899960517883 0.6213399767875671 0.35857999324798584 -0.3977999985218048 -0.053658001124858856 0.5936200022697449 -0.15410999953746796 -0.5052099823951721 0.6419500112533569 -0.3404099941253662 0.3359200060367584 -0.08526699990034103 0.035649001598358154 0.5337499976158142 0.03490300104022026 0.5494400262832642 -0.8005499839782715 0.7288200259208679 -1.104099988937378 0.4116800129413605 -0.5315499901771545 -0.4610700011253357 1.210800051689148 1.3970999717712402 1.198699951171875 -0.5279499888420105 -0.0043981000781059265 -0.30671000480651855 -0.05924300104379654 -0.07957299798727036 -0.33629000186920166 0.24876999855041504 0.44078999757766724
jackets 0.08505500108003616 -1.749899983406067 -0.17031000554561615 -0.2683599889278412 -0.4037500023841858 -0.31689000129699707 0.9307299852371216 0.12195000052452087 0.5370699763298035 -0.8322100043296814 0.9208400249481201 1.1719000339508057 -2.0878000259399414 0.6377300024032593 -0.24071000516414642 0.0013864999637007713 -1.337499976158142 -0.8286299705505371 -0.06240899860858917 0.12643000483512878 0.33142998814582825 -0.046427998691797256 1.2934999465942383 -0.8865500092506409 -0.421750009059906 1.3437000513076782 0.3225800096988678 0.5644599795341492 -0.3729400038719177 -0.923229992389679 0.28630998730659485 1.0211999416351318 0.6557499766349792 -0.17159999907016754 1.194700002670288 -1.6754000186920166 -1.079200029373169 0.2950200140476227 0.13830000162124634 0.9486200213432312 0.5983800292015076 -0.09796900302171707 0.22766999900341034 -0.16997000575065613 -0.06885100156068802 0.11240000277757645 0.5017099976539612 -0.1712999939918518 -0.2499600052833557 0.2041500061750412
cart -0.9594100117683411 -0.1324400007724762 -0.4078100025653839 -0.1610500067472458 0.9007899761199951 -0.6249499917030334 0.019807999953627586 -0.3339200019836426 0.6975100040435791 -0.3270600140094757 0.7605599761009216 0.9797300100326538 -2.0601999759674072 0.028302999213337898 0.40288999676704407 0.3969300091266632 0.3796600103378296 -0.6222900152206421 -0.002001600107178092 -0.0677110031247139 -0.2323099970817566 -0.2587699890136719 0.6056699752807617 -0.005064500030130148 -0.10307999700307846 0.8179000020027161 -0.8930299878120422 0.2640500068664551 0.19210000336170197 -0.4230700135231018 0.2547900080680847 -0.06843099743127823 -0.014062999747693539 -1.3592000007629395 0.15807999670505524 0.21493999660015106 0.6852700114250183 0.5288400053977966 0.3326300084590912 0.025475999340415 -0.2107200026512146 1.3367999792099 -0.8468300104141235 -0.7683299779891968 0.8531799912452698 0.40323999524116516 -0.03423500061035156 0.27535998821258545 0.1271899938583374 0.48708000779151917
seats 0.26284998655319214 -0.3687799870967865 0.9536299705505371 0.2546600103378296 -0.21187999844551086 -0.5028899908065796 0.9267699718475342 0.46698999404907227 0.26938000321388245 -0.7346400022506714 0.6806100010871887 -0.4653800129890442 -2.9934000968933105 0.15942999720573425 0.9295799732208252 0.9644500017166138 -0.19603000581264496 -0.8499600291252136 -0.5799800157546997 0.2285500019788742 -0.8044499754905701 -1.4503999948501587 0.776419997215271 -0.0497170016169548 -0.37452998757362366 0.9929900169372559 -0.7896199822425842 -0.33776000142097473 -0.4397299885749817 -0.3543199896812439 0.6649500131607056 0.7295500040054321 0.4354900121688843 0.4948900043964386 1.4032000303268433 -0.42153000831604004 0.005535599775612354 0.20829999446868896 0.24984000623226166 0.24587999284267426 0.6027899980545044 1.9940999746322632 -0.2586899995803833 -0.4790799915790558 0.17190000414848328 -0.3014500141143799 0.6710100173950195 -0.20577000081539154 0.5431900024414062 0.741569995880127
filters 0.38032999634742737 0.1342500001192093 -0.8286899924278259 0.23307999968528748 0.3705199956893921 -0.27338001132011414 0.33406001329421997 -1.6956000328063965 -0.17848999798297882 0.03640799969434738 0.4070900082588196 0.7836999893188477 -2.372499942779541 -0.0745759978890419 -0.01722799986600876 0.20550000667572021 0.4008300006389618 -0.9954900145530701 1.2724000215530396 0.07553199678659439 -1.3187999725341797 -1.0719000101089478 0.5980200171470642 -0.36261001229286194 -0.5418800115585327 0.6940000057220459 -0.5532699823379517 1.5226999521255493 -0.49678999185562134 0.6305699944496155 -0.4059700071811676 0.903410017490387 -0.1675499975681305 -0.9213100075721741 -0.2883799970149994 -1.1735999584197998 0.021745000034570694 0.9914699792861938 -0.01155600044876337 0.8351399898529053 0.7923300266265869 -0.1635800004005432 -0.003243400016799569 -0.982479989528656 -0.8710899949073792 -0.8396999835968018 -0.1149199977517128 -0.14234000444412231 -0.34668999910354614 -0.06086000055074692
ornaments -0.335640013217926 -1.2187000513076782 0.6393200159072876 0.8014199733734131 0.8723000288009644 -0.8123800158500671 0.4891200065612793 -0.9985299706459045 0.45318999886512756 -1.295799970626831 0.5183200240135193 1.1668000221252441 -1.5332000255584717 0.4975599944591522 -0.40448999404907227 0.8296099901199341 -0.6353099942207336 -0.2360599935054779 0.3097600042819977 0.6470800042152405 -0.838699996471405 0.022951999679207802 -0.19351999461650848 -0.23858000338077545 -0.25380000472068787 1.162600040435791 -1.5231000185012817 0.6562700271606445 0.9492599964141846 -0.37529000639915466 0.7443600296974182 0.8589199781417847 0.4050399959087372 0.023725999519228935 -0.5812399983406067 -0.8085200190544128 0.6362299919128418 0.35293999314308167 0.35802000761032104 0.445499986410141 0.9166499972343445 0.14124999940395355 -0.017966000363230705 -0.29736000299453735 0.33629000186920166 0.5752999782562256 -0.1480800062417984 -0.8787800073623657 -0.30274999141693115 0.6912500262260437
work 0.3776000142097473 0.2144699990749359 -0.2935200035572052 -0.798740029335022 0.3512299954891205 0.575980007648468 1.0383000373840332 -0.26037999987602234 -0.03243200108408928 -0.047572001814842224 -0.4102100133895874 0.10159999877214432 -5.2631001472473145 0.4300599992275238 -0.34341999888420105 0.04404599964618683 -0.14104999601840973 -0.3037700057029724 -1.3423999547958374 -0.1715099960565567 -0.94309002161026 0.04128599911928177 0.06351900100708008 0.6420599818229675 0.08936700224876404 0.4938099980354309 0.3648799955844879 0.15275000035762787 0.3700999915599823 -0.24824999272823334 0.18658000230789185 -0.2535000145435333 -0.1437000036239624 -0.22506999969482422 0.4358299970626831 0.3660300076007843 -0.13384999334812164 0.8528500199317932 0.06048399955034256 0.4120500087738037 -0.20893999934196472 1.04830002784729 0.4541800022125244 0.04770899936556816 0.8110700249671936 -0.2550100088119507 0.13874000310897827 0.4556399881839752 -0.6230400204658508 0.23765000700950623
cropped -0.708899974822998 -1.3021999597549438 1.1167999505996704 0.2315800040960312 0.26370999217033386 -1.1578999757766724 0.4808399975299835 -0.11956000328063965 0.2257400006055832 -0.2498299926519394 -0.01486000046133995 0.7877900004386902 -1.1791000366210938 -0.05415099859237671 -0.9439899921417236 -0.3071199953556061 0.007236199919134378 -0.6840100288391113 -0.07197099924087524 -0.21844999492168427 -0.27044999599456787 -0.38433998823165894 0.7691299915313721 -0.9446899890899658 -1.2080999612808228 0.37338998913764954 -0.288129985332489 0.5524799823760986 -0.39048999547958374 -0.12848000228405 0.08505100011825562 1.5298999547958374 0.48662999272346497 -1.707800030708313 0.5353900194168091 -0.5174800157546997 -0.2490299940109253 -0.06566300243139267 -0.03305500000715256 0.10332000255584717 0.21448999643325806 -0.257889986038208 0.15249000489711761 -0.3131699860095978 -0.27178001403808594 -0.3338100016117096 0.40422001481056213 0.21459999680519104 -0.3542400002479553 -0.4981600046157837
strength -0.6544600129127502 -0.3720099925994873 0.025429999455809593 -0.13545000553131104 0.19179999828338623 1.5110000371932983 0.7488600015640259 -0.7974100112915039 -1.222499966621399 -0.29884999990463257 -0.38117000460624695 0.1035199984908104 -3.502700090408325 0.14343999326229095 0.08286800235509872 0.7218800187110901 0.24522000551223755 0.6263800263404846 0.2651599943637848 -1.5123000144958496 -0.7943000197410583 1.3723000288009644 0.26875001192092896 0.8629400134086609 0.007631700020283461 1.0331000089645386 0.4625999927520752 0.7738999724388123 1.0023000240325928 0.5403100252151489 0.3261699974536896 -1.1960999965667725 0.19271999597549438 0.3878200054168701 1.0149999856948853 0.11791999638080597 0.07425300031900406 0.3048200011253357 -0.25891000032424927 0.04508399963378906 1.0569000244140625 -0.03555800020694733 0.7571300268173218 -0.3837999999523163 -0.07975900173187256 -0.6665999889373779 0.6344599723815918 0.021914999932050705 1.0255999565124512 -0.17825999855995178
wind -0.4846700131893158 -0.3628099858760834 0.14625999331474304 -0.12127000093460083 -0.7210699915885925 1.1062999963760376 0.024183999747037888 -0.8379300236701965 -0.3599500060081482 -0.5931400060653687 0.7175899744033813 0.510200023651123 -3.6303999423980713 -0.30845001339912415 0.29381999373435974 -0.34999001026153564 0.7327600121498108 1.155500054359436 -0.12140999734401703 -0.34365999698638916 -0.007360899820923805 -0.8356099724769592 0.8043500185012817 0.4058299958705902 0.8883699774742126 0.2194499969482422 -0.38273999094963074 1.1676000356674194 -0.9087700247764587 1.3099000453948975 -0.02871200069785118 0.7291200160980225 0.937749981880188 0.3120799958705902 0.8892099857330322 -0.44968000054359436 -1.5880999565124512 0.5885800123214722 0.917639970779419 0.2619200050830841 -1.1157000064849854 0.38479000329971313 -0.2481199949979782 0.575439989566803 -0.5314900279045105 -0.02695400081574917 -0.08721300214529037 0.06857199966907501 0.1064400002360344 1.2659000158309937
warmers -0.99235999584198 -1.3526999950408936 -0.4723699986934662 -0.34637999534606934 -0.06517399847507477 -0.2600800096988678 -0.1463399976491928 0.09949500113725662 0.7873799800872803 -1.325600028038025 0.17547999322414398 0.8274700045585632 -0.9843800067901611 0.2581300139427185 -0.38892999291419983 1.2615000009536743 0.4108699858188629 -0.6566600203514099 0.1817999929189682 -0.5950300097465515 -0.801289975643158 0.9686499834060669 0.7492499947547913 -0.26260000467300415 1.0788999795913696 2.0703999996185303 -0.7935500144958496 1.4519000053405762 -0.4116699993610382 -0.49243998527526855 -0.3395099937915802 1.0369000434875488 0.6910399794578552 -0.5356299877166748 0.9666000008583069 -0.9967799782752991 -0.5004600286483765 0.2880600094795227 0.3353799879550934 1.172700047492981 0.7888000011444092 0.9750499725341797 -0.06189899891614914 0.47286999225616455 0.1757899969816208 -0.6653599739074707 0.6880000233650208 0.30281999707221985 0.7844399809837341 -0.16571000218391418
items -0.5185499787330627 -0.765779972076416 -0.9350000023841858 0.06574500352144241 1.173799991607666 -1.0533000230789185 0.4968000054359436 -1.2249000072479248 0.39381998777389526 -0.8108000159263611 0.7628899812698364 0.6652899980545044 -2.8673999309539795 0.6072199940681458 -0.421779990196228 1.3115999698638916 0.3255600035190582 -0.6613399982452393 0.10463999956846237 0.2117300033569336 -0.5736100077629089 -0.8083800077438354 -0.012298000045120716 0.02655000053346157 -1.1664999723434448 0.7638499736785889 -0.3182399868965149 -0.49083998799324036 0.8381900191307068 -1.045199990272522 0.8981099724769592 0.3258799910545349 -0.24597999453544617 0.40376999974250793 1.1247999668121338 -1.0827000141143799 -0.10270000249147415 0.2204499989748001 0.024886999279260635 -0.8901000022888184 0.20556999742984772 0.3152199983596802 -0.24501000344753265 -0.6932899951934814 0.7044900059700012 0.15509000420570374 0.28613999485969543 -0.47585999965667725 -0.799809992313385 0.4289200007915497
dead 0.1544100046157837 0.11069999635219574 -0.07779400050640106 -0.41036999225616455 -0.42743998765945435 0.009841600432991982 0.6202399730682373 0.41585999727249146 0.22976000607013702 0.027240000665187836 0.43639999628067017 -0.04970899969339371 -4.315000057220459 0.1033099964261055 0.1934799998998642 -0.2672800123691559 -0.17398999631404877 -0.18161000311374664 -0.8947100043296814 0.07291299849748611 -0.3895300030708313 -0.013717000372707844 -0.14940999448299408 -0.729449987411499 0.10811000317335129 -0.30024999380111694 -1.236199975013733 -0.19309000670909882 -0.12806999683380127 0.7266299724578857 -0.5927900075912476 0.07651100307703018 -0.4789299964904785 0.37224000692367554 -0.692550003528595 0.5956000089645386 -0.617169976234436 -1.1038999557495117 -0.40296998620033264 -1.0577000379562378 -0.4578799903392792 -0.09785400331020355 0.2224700003862381 0.6301800012588501 0.24368000030517578 0.2264299988746643 0.7371199727058411 0.3975200057029724 -0.009365499950945377 0.5955399870872498
slim -0.6748600006103516 -0.8515200018882751 -0.31237998604774475 0.08087900280952454 -0.31689000129699707 0.7605100274085999 -0.6199700236320496 0.1920199990272522 -0.023336999118328094 0.08948499709367752 -0.3824400007724762 0.9527199864387512 -2.5471999645233154 -0.7353299856185913 0.2137400060892105 -0.4332199990749359 -0.1320199966430664 0.2279299944639206 0.010913999751210213 0.46884000301361084 -1.0858999490737915 -0.09200099855661392 0.6566200256347656 -0.7519099712371826 0.27140000462532043 -0.09747199714183807 0.10453999787569046 -0.12912000715732574 -0.968779981136322 -0.9614999890327454 0.3550100028514862 0.5026199817657471 -0.11919999867677689 -1.0168999433517456 -0.07190199941396713 -0.4085899889469147 0.29965999722480774 -0.2646400034427643 -0.2560499906539917 -0.09455499798059464 -1.510599970817566 -0.2372799962759018 0.39395999908447266 -0.1457500010728836 -0.12684999406337738 -1.3530999422073364 0.15963000059127808 0.9093400239944458 -0.10666000097990036 -0.051972001791000366
coaster -1.5479999780654907 -0.7279000282287598 0.31169000267982483 0.19979999959468842 -0.07988400012254715 0.671019971370697 0.8427299857139587 -1.0188000202178955 0.55035001039505 -0.12913000583648682 0.4167200028896332 0.32197999954223633 -1.9400999546051025 0.1169700026512146 0.36847999691963196 -0.025320999324321747 -0.007994599640369415 0.5240799784660339 -0.5471100211143494 0.4600600004196167 0.5718100070953369 0.2562899887561798 0.38029998540878296 -0.2875399887561798 0.120899997651577 0.6988099813461304 -1.5927000045776367 0.252920001745224 -0.26875001192092896 -0.6236000061035156 0.1519400030374527 -0.40939000248908997 0.7008399963378906 -0.6335099935531616 0.43786999583244324 -0.23567000031471252 1.1164000034332275 -0.1487099975347519 0.7450799942016602 0.292959988117218 -0.6909099817276001 0.5702199935913086 -0.30862000584602356 -0.5165899991989136 -0.21607999503612518 0.6419699788093567 -0.5458099842071533 1.055400013923645 0.10875000059604645 0.5300099849700928
crafts -0.07122199982404709 -0.7051699757575989 0.0580269992351532 -0.11371000111103058 1.8657000064849854 -0.34422001242637634 0.3650200068950653 -0.8679400086402893 0.6386200189590454 -1.5872000455856323 -0.46900999546051025 1.1374000310897827 -1.8844000101089478 0.5700700283050537 -0.5628499984741211 0.2624799907207489 -0.42895999550819397 -0.2376900017261505 0.5022900104522705 1.0583000183105469 -0.7092400193214417 -0.06194400042295456 -0.1814499944448471 0.03905000165104866 -0.1318099945783615 1.1569000482559204 -0.38222000002861023 1.1469999551773071 0.8618599772453308 -1.0117000341415405 0.5551199913024902 -0.24594999849796295 0.24443000555038452 0.002493700012564659 -0.7820299863815308 -0.8731899857521057 0.31915000081062317 0.832040011882782 1.267799973487854 -0.3878200054168701 0.36680999398231506 0.3325600028038025 -0.016697999089956284 0.008642099797725677 1.0978000164031982 0.3199099898338318 0.02148899994790554 -0.4769200086593628 -0.9496700167655945 -0.4563100039958954
kids 0.3999300003051758 0.6909899711608887 -0.09462600201368332 -0.0070408000610768795 0.03182400017976761 0.16759000718593597 0.8430799841880798 0.32319000363349915 -0.33851999044418335 -0.4027499854564667 -0.3998599946498871 0.9261999726295471 -4.496799945831299 0.7757899761199951 0.07589700073003769 0.16478000581264496 -0.9366599917411804 -0.8823300004005432 0.043115999549627304 0.7541599869728088 -0.4441800117492676 -0.10625000298023224 -0.06417399644851685 0.04780900105834007 0.14855000376701355 0.17848999798297882 -0.2799600064754486 0.0395050011575222 0.12172999978065491 -0.7355800271034241 -0.0473410002887249 -0.7409300208091736 0.3401600122451782 0.318450003862381 -0.28387999534606934 -0.39406999945640564 -0.15700000524520874 0.029573999345302582 0.10764999687671661 -0.5992900133132935 -0.6189000010490417 0.611329972743988 -0.4887799918651581 -0.10826999694108963 0.5517500042915344 -0.18497000634670258 1.1835999488830566 0.5870299935340881 -0.3700000047683716 0.15972000360488892
jewelry -1.4560999870300293 -1.8841999769210815 0.28345000743865967 0.5449699759483337 1.253499984741211 -1.0396000146865845 0.19900000095367432 -0.8077499866485596 1.3330999612808228 -0.9591699838638306 -0.332720011472702 0.8469499945640564 -2.3828001022338867 -0.41060999035835266 -0.3629800081253052 0.9700199961662292 -0.36507999897003174 -0.02917099930346012 0.835669994354248 1.0388000011444092 -0.48568999767303467 -0.5391499996185303 0.5911499857902527 -0.2186799943447113 -0.3749299943447113 1.0490000247955322 -1.1784000396728516 1.044700026512146 0.6337199807167053 -1.7726000547409058 0.42879998683929443 -0.4004899859428406 -0.34975001215934753 -0.3068400025367737 0.8201199769973755 -0.8797799944877625 0.12500999867916107 0.5514799952507019 0.5161700248718262 -0.9377700090408325 -0.6227999925613403 0.3118700087070465 0.19713999330997467 0.05727500095963478 0.21622000634670258 -0.4879299998283386 0.7250099778175354 -1.0799000263214111 0.07676199823617935 -0.007936700247228146
school 1.6875 0.47791001200675964 0.3949899971485138 -0.8321400284767151 -0.6307200193405151 0.23882000148296356 1.4800000190734863 -0.2134300023317337 -0.28804001212120056 -0.20693999528884888 -0.16640999913215637 0.3702299892902374 -4.684700012207031 0.7194200158119202 -0.3586699962615967 -0.15241999924182892 -0.709119975566864 -0.09753099828958511 -1.4153000116348267 0.3997400104999542 0.11364000290632248 0.5862500071525574 -0.09410600364208221 0.15768000483512878 0.8987399935722351 -0.06887000054121017 0.17850999534130096 -1.048799991607666 -0.28723999857902527 -0.7549499869346619 -0.07550899684429169 -0.544439971446991 0.1946599930524826 -0.9668099880218506 0.15594999492168427 -0.9942700266838074 -0.7554200291633606 1.2644000053405762 0.868910014629364 -0.4176200032234192 -0.9074599742889404 0.8476799726486206 -0.35308000445365906 -0.22458000481128693 0.34505000710487366 -0.3716900050640106 0.5520899891853333 0.5067800283432007 -0.43070000410079956 0.9253900051116943
protectors -0.5492200255393982 -0.573889970779419 -0.3027999997138977 1.1700999736785889 0.07794699817895889 -0.05477700009942055 0.3763999938964844 -0.7964900135993958 0.18628999590873718 -0.9089099764823914 0.40358999371528625 0.41453999280929565 -1.5095000267028809 -0.5074700117111206 0.20985999703407288 -0.3125799894332886 0.0016606999561190605 -0.2547999918460846 0.7891499996185303 -0.2746500074863434 -1.7415000200271606 -0.5833200216293335 0.0923129990696907 -0.8391900062561035 -0.3383899927139282 1.27839994430542 -0.4303799867630005 -0.0974309965968132 -0.43797001242637634 0.8069800138473511 0.2532399892807007 -0.13895000517368317 0.242139995098114 -0.07956299930810928 0.08040200173854828 -1.391700029373169 -0.05376800149679184 -0.1897599995136261 -0.4828700125217438 0.0880969986319542 1.3662999868392944 0.5707799792289734 0.32945001125335693 0.21156999468803406 -0.3910500109195709 -0.6675400137901306 0.13407999277114868 -0.31338000297546387 0.6757100224494934 -0.3337100148200989
coolers -0.27842000126838684 -0.17408999800682068 -0.0745600014925003 0.7890099883079529 -0.026202000677585602 0.8716999888420105 -0.41909998655319214 -0.8525300025939941 -0.03117300011217594 -0.4280099868774414 -0.0060732001438736916 0.08085799962282181 -1.0188000202178955 -0.11474999785423279 0.5747799873352051 -0.01786700077354908 0.733299970626831 -0.6105999946594238 0.7830399870872498 0.4008300006389618 -0.6019200086593628 -0.781790018081665 0.5352200269699097 -0.2313999980688095 0.4428499937057495 0.9463899731636047 -0.5973799824714661 0.015690000727772713 -0.8565599918365479 -0.302729994058609 0.7743300199508667 1.07669997215271 -0.4432399868965149 0.3688800036907196 -0.5479000210762024 -0.8386399745941162 0.7201399803161621 0.4719200134277344 -0.20101000368595123 1.3458000421524048 1.0355000495910645 0.6837900280952454 -0.805429995059967 -0.35166001319885254 0.3078800141811371 -0.03341199830174446 -0.07531499862670898 -0.06788899749517441 -0.3346500098705292 0.4478999972343445
belt -0.7872099876403809 -1.090000033378601 0.6851699948310852 -0.33570998907089233 -0.1985500007867813 0.011219000443816185 0.17850999534130096 -0.04563700035214424 0.8044099807739258 -0.0715700015425682 0.03764300048351288 1.555299997329712 -2.2421000003814697 0.1121399998664856 -0.4719200134277344 0.5465199947357178 -0.3147200047969818 0.2542699873447418 0.08810699731111526 -0.4360800087451935 -0.7198100090026855 0.5714100003242493 1.5111000537872314 -0.5273299813270569 0.28922998905181885 0.2845099866390228 0.21116000413894653 -0.07844600081443787 -0.5540099740028381 -0.5317100286483765 0.23040999472141266 0.28703001141548157 0.11191999912261963 -1.5520000457763672 0.8485900163650513 -0.6440799832344055 0.044477999210357666 0.3740299940109253 0.1965699940919876 -0.5685399770736694 -0.24729999899864197 0.5299400091171265 -0.12037999927997589 -0.05318000167608261 0.5600900053977966 -1.1720999479293823 0.6373400092124939 0.2555199861526489 0.8761000037193298 0.25130000710487366
vest -0.8067600131034851 -1.4996999502182007 -0.013233000412583351 0.21765999495983124 -0.5853000283241272 -0.19214999675750732 0.17722000181674957 -0.4230799973011017 1.0047999620437622 -0.09006399661302567 -0.039044998586177826 1.3932000398635864 -1.8633999824523926 0.6765000224113464 -0.12762999534606934 0.5367100238800049 -0.29561999440193176 -0.14061999320983887 -0.24059000611305237 -0.3357999920845032 -0.5300999879837036 0.3149299919605255 1.1930999755859375 -0.4330799877643585 0.26899001002311707 0.4953100085258484 -0.0501209981739521 0.2766999900341034 -0.7184900045394897 -0.33153000473976135 0.2462099939584732 0.7650799751281738 0.2933099865913391 -1.367799997329712 0.5279099941253662 -1.0211000442504883 -0.5699499845504761 0.28672999143600464 -0.24963000416755676 -0.2160400003194809 -0.23994000256061554 0.23104999959468842 0.15153999626636505 0.02354300022125244 0.3290500044822693 -0.016735000535845757 0.9474499821662903 0.2970699965953827 0.4661799967288971 -0.06357300281524658
smartphones 0.3161500096321106 0.43261000514030457 -1.506600022315979 1.2026000022888184 -0.37536999583244324 0.7246999740600586 -0.6716799736022949 -0.9303600192070007 0.5085200071334839 -0.44839000701904297 0.7591999769210815 0.13880999386310577 -2.0171000957489014 1.373900055885315 -0.27730000019073486 -0.3690199851989746 -0.14673000574111938 0.13223999738693237 1.1825000047683716 0.4318999946117401 -0.7664399743080139 -1.0247000455856323 -0.1589999943971634 -1.1334999799728394 -1.0270999670028687 -0.44409000873565674 -0.597000002861023 0.08184599876403809 -0.8207600116729736 0.05606300011277199 0.35249000787734985 -0.3560999929904938 0.3238399922847748 -0.16097000241279602 0.7103999853134155 -0.4605099856853485 0.16401000320911407 -0.6603299975395203 -1.2407000064849854 0.28150999546051025 -0.20235000550746918 0.13109999895095825 -0.9539700150489807 0.13756999373435974 0.6698899865150452 -0.9947800040245056 -0.5437700152397156 -0.20667999982833862 -0.8795700073242188 0.7363499999046326
balls 0.17445999383926392 -0.2949399948120117 0.8029599785804749 -0.4128499925136566 0.5606499910354614 0.03865300118923187 0.17107999324798584 0.36100998520851135 -0.10660000145435333 0.46272000670433044 0.4759199917316437 0.17634999752044678 -3.7032999992370605 -0.35673999786376953 -0.14430999755859375 0.30390000343322754 -0.0958160012960434 -1.3594000339508057 0.2897999882698059 -0.5660399794578552 -0.7512099742889404 0.6643000245094299 1.3193000555038452 0.22029000520706177 0.017184000462293625 0.7882199883460999 -0.7326599955558777 0.33878999948501587 -0.4363900125026703 -0.04265499860048294 0.048958998173475266 0.28018999099731445 -0.024656999856233597 -0.05852799862623215 0.013717999681830406 0.19675999879837036 0.07938800007104874 0.0318790003657341 0.34665000438690186 0.855929970741272 0.22887000441551208 -0.4166100025177002 -0.6083899736404419 0.5567600131034851 1.0011999607086182 -0.11282999813556671 0.7531999945640564 0.2417300045490265 0.6461799740791321 0.8395900130271912
stringed 0.21025000512599945 -0.7487999796867371 -0.4498099982738495 2.0922000408172607 0.7890400290489197 -0.21682000160217285 0.7190600037574768 -0.3184399902820587 -0.2019300013780594 -1.4155999422073364 0.34964001178741455 0.4968999922275543 -0.007841099984943867 -0.33136001229286194 0.4035800099372864 -1.1174999475479126 0.8044899702072144 -0.47971999645233154 -0.0099870003759861 0.282039999961853 0.26263999938964844 1.9555000066757202 0.4790399968624115 -1.2582999467849731 -0.026512999087572098 0.6551899909973145 -0.4903999865055084 0.8160499930381775 -0.05259900167584419 0.20270000398159027 0.9737300276756287 0.1148499995470047 0.4532899856567383 -0.7104099988937378 -0.15841999650001526 -0.1288899928331375 1.2279000282287598 -0.6624600291252136 -0.9199399948120117 0.11552000045776367 2.1029000282287598 0.760860025882721 0.10621999949216843 0.5181599855422974 0.057133998721838 0.7156199812889099 0.0590130016207695 0.5237699747085571 0.7616999745368958 0.3068299889564514
ray -0.47464999556541443 -0.28227001428604126 0.42440998554229736 -0.3567900061607361 -0.7030199766159058 -0.27098000049591064 0.4624499976634979 1.1079000234603882 -0.377810001373291 -0.23960000276565552 0.47940999269485474 1.3021999597549438 -3.249799966812134 -0.2985999882221222 0.20155000686645508 0.009869500063359737 0.10842999815940857 0.20942999422550201 0.39035001397132874 0.5527399778366089 -0.4719400107860565 0.3632600009441376 0.13740000128746033 -0.32210999727249146 -0.337909996509552 -0.14948999881744385 0.565060019493103 0.11862999945878983 -0.09089600294828415 0.13415999710559845 0.02091600000858307 0.3682999908924103 -0.9294000267982483 -0.2025900036096573 -0.09991999715566635 0.8070700168609619 -0.4534600079059601 -0.13868999481201172 -0.011285999789834023 0.22110000252723694 -0.8557100296020508 -0.022704999893903732 -0.045795001089572906 0.17149999737739563 -0.6719599962234497 -0.17013999819755554 -0.2588900029659271 -0.5864999890327454 -0.21046000719070435 -0.08570999652147293
seat -0.7258599996566772 -0.5382699966430664 0.5712199807167053 0.12176000326871872 -0.29170000553131104 -0.43696001172065735 0.8990600109100342 0.3634200096130371 0.731469988822937 0.19043000042438507 0.3637399971485138 0.24194000661373138 -2.825900077819824 -0.5760800242424011 0.7269999980926514 1.0199999809265137 -0.09919500350952148 -0.22345000505447388 -0.45976001024246216 -0.09797000139951706 -0.7991200089454651 -0.8525500297546387 0.6717399954795837 -0.09295099973678589 0.11062999814748764 0.3681100010871887 -0.45833998918533325 -0.36570000648498535 -0.4506300091743469 0.1431100070476532 -0.10407999902963638 0.3025200068950653 0.5978500247001648 -0.23265999555587769 0.9829099774360657 0.13183000683784485 0.49031001329421997 0.8062400221824646 0.5582900047302246 -0.19025999307632446 -0.2849999964237213 1.736299991607666 0.02551399916410446 -0.4645499885082245 0.8077700138092041 -0.17423999309539795 0.6620500087738037 0.20810000598430634 0.636650025844574 0.07768599689006805
loss 0.4688900113105774 -0.33511000871658325 -0.5532299876213074 -0.9926900267601013 0.7076900005340576 1.0528000593185425 0.21908999979496002 0.23446999490261078 -0.5680099725723267 -1.1061999797821045 0.44745001196861267 -0.01498399954289198 -3.175800085067749 1.271299958229065 0.7869099974632263 0.7719600200653076 1.440500020980835 0.45704999566078186 0.43766000866889954 -0.35576000809669495 -0.6492199897766113 0.6728500127792358 0.2215700000524521 0.4066999852657318 -0.3206300139427185 0.9882599711418152 0.4016999900341034 0.40244999527931213 -0.4412899911403656 0.532800018787384 -0.5092200040817261 -0.10721000283956528 -0.1917800009250641 0.969510018825531 0.3662799894809723 0.14156000316143036 0.2916199862957001 0.49097999930381775 -0.38100001215934753 -0.05815599858760834 -0.42166000604629517 -0.8807399868965149 0.8325099945068359 0.11922000348567963 0.6118900179862976 -1.076200008392334 0.021259000524878502 0.32978999614715576 -0.2041500061750412 0.5770599842071533
tag 1.0264999866485596 0.07439199835062027 0.43928998708724976 -0.7581999897956848 0.3921700119972229 -0.3169200122356415 0.520609974861145 -0.08743199706077576 0.560259997844696 0.2680499851703644 -0.6653800010681152 0.13184000551700592 -2.3371999263763428 -0.2695299983024597 -1.0606000423431396 0.4225800037384033 0.13513000309467316 0.2175000011920929 0.11029999703168869 -0.09133700281381607 -0.043462999165058136 0.5524399876594543 -0.25598999857902527 0.45436999201774597 -0.1993200033903122 -0.1503099948167801 0.3259499967098236 0.6554399728775024 -0.32618001103401184 0.737559974193573 -0.15383000671863556 0.46007999777793884 0.2865400016307831 -0.5340200066566467 0.5961599946022034 -0.4364199936389923 0.6612300276756287 -1.3897000551223755 -1.8026000261306763 -0.0839729979634285 -1.9286999702453613 -0.014255000278353691 -0.3752399981021881 0.7285500168800354 -0.03539599850773811 -0.2072400003671646 0.2343599945306778 -0.8718199729919434 0.06760700047016144 -0.1151600033044815
biography -0.2919600009918213 0.3385399878025055 -0.041937001049518585 0.4535199999809265 0.7974500060081482 -1.621500015258789 0.8727499842643738 -0.5484200119972229 -0.44091999530792236 -0.5943400263786316 0.551069974899292 -0.26600998640060425 -1.5253000259399414 -0.15172000229358673 -0.08584599941968918 -0.8662199974060059 0.847760021686554 1.0002000331878662 0.24281999468803406 0.3411400020122528 -0.16967999935150146 0.2718900144100189 -0.040130000561475754 -0.23420000076293945 -0.9615300297737122 0.7926200032234192 0.5037000179290771 -0.6058499813079834 0.10138999670743942 0.024765999987721443 0.28707998991012573 0.10939999669790268 -0.4253999888896942 -0.639710009098053 0.3666499853134155 0.22306999564170837 0.6649799942970276 -0.35868000984191895 0.9387699961662292 -1.6588000059127808 0.9365699887275696 0.13122999668121338 0.05661199986934662 -0.04071500152349472 -0.15119999647140503 0.016006000339984894 -0.03076699934899807 -0.36768001317977905 -1.0810999870300293 -0.7761600017547607
cowl -2.094899892807007 -1.867799997329712 0.1491200029850006 -0.1938299983739853 -0.14858999848365784 -0.41172999143600464 -0.5314199924468994 -0.16144999861717224 0.7113000154495239 -0.7916100025177002 0.24572999775409698 0.3635999858379364 0.034961998462677 -0.830079972743988 -0.019331999123096466 0.709309995174408 -0.073683001101017 0.45122000575065613 0.3052099943161011 -0.23687000572681427 -0.40782999992370605 1.063099980354309 -0.47578999400138855 -0.581849992275238 0.17791999876499176 1.608299970626831 -1.2263000011444092 0.9993600249290466 -0.3048799932003021 -0.39458000659942627 -0.123259998857975 -0.32541000843048096 0.8656700253486633 -0.7481899857521057 0.28439998626708984 -1.6240999698638916 -0.1664000004529953 -0.126460000872612 1.051800012588501 -0.29695001244544983 0.2545199990272522 -0.027692999690771103 1.7023999691009521 0.6496700048446655 1.0073000192642212 0.0944959968328476 0.5418599843978882 0.26431000232696533 0.7174199819564819 0.27671000361442566
merchandise -1.0338000059127808 -0.03277299925684929 -0.6733599901199341 -0.034306999295949936 0.8999599814414978 -0.8269000053405762 1.1740000247955322 0.680899977684021 1.0764000415802002 -0.5182399749755859 0.9259399771690369 0.27941998839378357 -1.531599998474121 0.5615599751472473 -0.18261000514030457 0.4544999897480011 -0.1013299971818924 -0.4383699893951416 0.20190000534057617 0.3165700137615204 -0.43042999505996704 -0.4830400049686432 -0.4586299955844879 0.08069399744272232 -1.156599998474121 1.049299955368042 0.6320000290870667 -0.42489001154899597 0.010114000178873539 -1.3034000396728516 0.24969999492168427 -0.012875000014901161 0.06256300210952759 -0.18140999972820282 1.8622000217437744 -1.055299997329712 0.36217001080513 -0.9686099886894226 -0.12205000221729279 0.13106000423431396 -0.24967999756336212 0.03105499967932701 -0.6590499877929688 -0.7622500061988831 -0.21987999975681305 0.3346099853515625 -0.04039900004863739 -0.7149500250816345 -0.6432099938392639 -0.5817300081253052
nail -0.5542200207710266 -1.1022000312805176 0.012968000024557114 0.45414999127388 0.2721399962902069 -0.5370200276374817 0.8872799873352051 -0.7035800218582153 0.4425300061702728 0.09008999913930893 -0.19046999514102936 0.7547100186347961 -2.793600082397461 0.6491699814796448 -0.7176899909973145 0.15308000147342682 0.46136999130249023 -0.22287000715732574 0.038554999977350235 0.5414699912071228 -0.7529900074005127 0.5063499808311462 0.42285001277923584 -0.009931500069797039 0.2603200078010559 0.9311400055885315 -1.0930999517440796 1.6126999855041504 -0.04268199950456619 0.15399999916553497 -0.14786000549793243 0.2870500087738037 -0.15960000455379486 -1.4318000078201294 0.39131999015808105 -0.08079899847507477 0.056248001754283905 0.8721500039100647 0.12619000673294067 1.0678000450134277 -0.2685900032520294 0.5598199963569641 -0.574429988861084 0.5888199806213379 1.0888999700546265 -0.5446400046348572 0.3918600082397461 -0.07193499803543091 0.2148900032043457 -0.35479000210762024
subwoofers -0.3423500061035156 0.2856200039386749 -0.40702998638153076 0.6032699942588806 0.5747100114822388 -0.3976599872112274 -0.3870300054550171 -0.7109000086784363 -0.0003538999881129712 -1.0442999601364136 0.5179499983787537 0.9514200091362 -0.20443999767303467 -0.9850900173187256 0.6186100244522095 -0.03459399938583374 0.330130010843277 -0.31384000182151794 0.26482000946998596 0.8639299869537354 -0.7465500235557556 0.29078999161720276 0.5060700178146362 -0.2992999851703644 -0.8179900050163269 0.8915600180625916 -0.6808000206947327 0.7296299934387207 -0.18616999685764313 -0.22684000432491302 0.2960500121116638 0.12415000051259995 -0.010866999626159668 0.03327599912881851 0.08521000295877457 -0.7283599972724915 0.8560100197792053 -0.5908799767494202 0.976859986782074 1.080199956893921 1.4567999839782715 0.8609899878501892 -0.587149977684021 0.002209099940955639 -0.3171299993991852 -0.593500018119812 0.3862699866294861 -0.4606899917125702 0.21673999726772308 0.20020000636577606
holidays 0.12955999374389648 -0.12745000422000885 -0.3296700119972229 0.04458099976181984 0.1057400032877922 0.1715800017118454 0.7999799847602844 -0.6700699925422668 0.4768500030040741 -0.5875700116157532 -0.32635000348091125 -0.7623199820518494 -3.1791000366210938 1.4602999687194824 -0.7725399732589722 0.7164000272750854 -0.7087200284004211 -0.2533000111579895 -0.8697299957275391 1.0109000205993652 0.2687000036239624 -0.6091200113296509 -0.9868999719619751 0.3605499863624573 0.08876899629831314 1.0583000183105469 -0.1430799961090088 -0.1717900037765503 0.5661799907684326 -0.8683199882507324 -0.14271999895572662 -0.19559000432491302 0.5920900106430054 0.527209997177124 0.057057999074459076 -0.32183000445365906 0.20035000145435333 0.34696999192237854 0.025320999324321747 0.3369700014591217 -0.230320006608963 0.05286300182342529 0.33348000049591064 0.08643800020217896 0.6853299736976624 0.2650499939918518 -0.04545700177550316 -0.3682200014591217 -0.6703799962997437 0.8766400218009949
leggings -0.10513000190258026 -1.8890999555587769 -0.18648000061511993 0.5610499978065491 0.17810000479221344 -0.10531999915838242 0.9256799817085266 0.47826001048088074 0.521809995174408 0.41054001450538635 -0.15195000171661377 0.7021999955177307 -2.174299955368042 1.3408000469207764 -1.221500039100647 0.7957599759101868 -1.125 -1.284500002861023 -0.008217300288379192 -0.1034500002861023 0.33682000637054443 -0.3705199956893921 0.4800100028514862 -0.6507099866867065 -0.01972300000488758 0.06508400291204453 0.08975300192832947 0.4702500104904175 -0.588890016078949 -1.0951999425888062 -0.3832100033760071 0.9141499996185303 1.017899990081787 -1.1104999780654907 0.4812999963760376 -0.897629976272583 -1.0839999914169312 0.14226000010967255 0.24749000370502472 0.4215500056743622 0.20996999740600586 -0.46424001455307007 -0.48379001021385193 -0.5616099834442139 0.46312999725341797 -0.7410799860954285 1.5678999423980713 0.9031199812889099 -0.10181000083684921 -0.5182200074195862
valentine -0.3218100070953369 0.047244999557733536 -0.08656399697065353 0.9243500232696533 0.2538900077342987 -0.5476499795913696 1.364799976348877 -0.03416400030255318 0.30584999918937683 0.18694999814033508 -0.18057000637054443 -0.09162399917840958 -2.7400999069213867 0.5191299915313721 -0.6365299820899963 1.1571999788284302 -0.7089999914169312 -0.2498999983072281 -0.32128000259399414 1.0777000188827515 -0.29919999837875366 0.258760005235672 -1.1287000179290771 -0.030400000512599945 0.3877600133419037 0.5751199722290039 0.03161099925637245 -0.33250001072883606 0.3641299903392792 -0.7666800022125244 -0.11776000261306763 0.060756999999284744 -0.29017001390457153 0.047258999198675156 -0.07899100333452225 0.13319000601768494 0.0054501998238265514 -0.11135999858379364 0.7633200287818909 0.2574400007724762 -1.405900001525879 -0.5784400105476379 -0.021655000746250153 -0.30278000235557556 0.5422000288963318 0.23122000694274902 -0.3605700135231018 -0.9117599725723267 -0.3667300045490265 0.05962999910116196
bowls 0.5143100023269653 -0.4931800067424774 0.9252300262451172 0.055291999131441116 1.033400058746338 0.5224300026893616 -0.4597899913787842 -0.12460000067949295 0.04635399952530861 -0.910610020160675 0.4135200083255768 -0.029867999255657196 -2.0780999660491943 0.16222000122070312 0.6227499842643738 0.45085999369621277 0.19742000102996826 -1.257099986076355 0.2196200042963028 0.43783000111579895 -0.16664999723434448 1.1039999723434448 1.121500015258789 -0.7220199704170227 0.3012799918651581 1.1586999893188477 -0.4010699987411499 -0.20701000094413757 0.09284000098705292 -0.576449990272522 0.876579999923706 0.9460499882698059 -0.6510900259017944 0.6540700197219849 -0.39625999331474304 -0.7311300039291382 0.19659000635147095 -0.03780699893832207 0.7881699800491333 1.6261999607086182 0.6856499910354614 0.22585999965667725 -0.40441998839378357 -0.8342800140380859 1.0256999731063843 -0.10988999903202057 0.40230000019073486 -0.37007999420166016 0.03409399837255478 0.3355900049209595
literature 0.6600599884986877 0.19859999418258667 0.4433000087738037 0.307669997215271 1.0614999532699585 0.12605999410152435 0.6149899959564209 -0.8051900267601013 0.09540700167417526 -0.03594600036740303 -0.7050999999046326 -1.007099986076355 -2.4112000465393066 0.42357000708580017 0.00755350012332201 -0.7968500256538391 0.6510400176048279 0.4451499879360199 -0.01786700077354908 0.7678200006484985 -0.79926997423172 0.7298600077629089 -0.019342999905347824 -0.08810299634933472 0.16999000310897827 0.3441700041294098 0.024311000481247902 -0.0905120000243187 0.5716599822044373 -0.259909987449646 1.256100058555603 -0.7033299803733826 0.7631999850273132 -0.1832199990749359 -0.20699000358581543 -0.7175899744033813 0.24547000229358673 0.4560900032520294 1.455899953842163 -0.9834799766540527 0.6700500249862671 0.2198999971151352 -0.2917799949645996 0.4572399854660034 0.3278299868106842 0.46851998567581177 -0.0448479987680912 0.1271599978208542 -0.9261999726295471 -1.0930999517440796
dvd -1.0989999771118164 0.313289999961853 0.1617099940776825 0.051075998693704605 0.5737800002098083 -0.15347999334335327 0.9701600074768066 0.37279999256134033 0.649179995059967 -0.6770899891853333 0.5567200183868408 0.838100016117096 -2.3447000980377197 0.35747000575065613 -0.5127999782562256 -0.21142999827861786 0.48322001099586487 0.538860023021698 -0.3898400068283081 0.6396200060844421 -1.294800043106079 -0.4551500082015991 0.5920699834823608 -0.5604100227355957 0.08972100168466568 -0.7554299831390381 -0.05683499947190285 0.0725959986448288 0.6511600017547607 0.12240000069141388 0.5843899846076965 -0.687749981880188 -0.5631399750709534 -0.12097000330686569 0.5725100040435791 -0.7118399739265442 0.12916000187397003 -2.268199920654297 -0.16258999705314636 -0.25216999650001526 -1.773900032043457 0.9819899797439575 -0.7685800194740295 -0.06638099998235703 0.06342200189828873 0.07065100222826004 -0.3034000098705292 -0.9560999870300293 -0.7616900205612183 -0.2740499973297119
scale -0.21359999477863312 -0.639240026473999 0.3716599941253662 0.26669999957084656 0.8148000240325928 -0.12925000488758087 -0.21367000043392181 -0.7112600207328796 0.6214699745178223 -0.05144299939274788 0.2552799880504608 -0.213469997048378 -2.704200029373169 -0.049362000077962875 0.4979200065135956 0.4645000100135803 0.2503100037574768 0.40463998913764954 0.22690999507904053 -0.02745099924504757 -0.07002899795770645 -0.11297000199556351 1.3009999990463257 -0.2405499964952469 -0.9916700124740601 1.0325000286102295 -0.4292899966239929 0.27838999032974243 0.09757100045681 1.0046000480651855 0.32232001423835754 -0.4846299886703491 0.45423001050949097 -0.2165900021791458 0.3586199879646301 0.13482999801635742 0.2865000069141388 0.3754599988460541 0.4214800000190735 -0.32603999972343445 -0.33684998750686646 -0.10242000222206116 -0.7068300247192383 0.07379700243473053 -0.3743700087070465 -0.2771199941635132 0.1306699961423874 1.2927000522613525 -0.5725799798965454 -0.01915699988603592
slipcovers -0.5183899998664856 -1.8940000534057617 0.9258400201797485 -0.36032000184059143 0.33539000153541565 -0.5448300242424011 -0.3723900020122528 1.052899956703186 0.07834500074386597 -1.8884999752044678 -0.2389799952507019 -0.28720998764038086 0.46189001202583313 0.8804100155830383 0.254040002822876 0.4300900101661682 1.3596999645233154 -0.7008100152015686 0.041349999606609344 0.33855998516082764 -1.233199954032898 0.5830299854278564 -0.923550009727478 -0.4764299988746643 -0.9724400043487549 -0.014015000313520432 -0.9457399845123291 0.8442299962043762 -0.8966000080108643 -1.134600043296814 0.14375999569892883 0.6565700173377991 0.942300021648407 0.1938299983739853 0.10531000047922134 -1.7798000574111938 0.1627800017595291 -1.6103999614715576 1.7336000204086304 0.2809399962425232 1.2542999982833862 1.579200029373169 -0.05801200121641159 -0.12123999744653702 -0.36191999912261963 -1.903499960899353 -0.7475000023841858 0.6733099818229675 -0.2571899890899658 0.10916999727487564
cookware -1.4348000288009644 -0.8314899802207947 0.715149998664856 0.43136999011039734 0.5141100287437439 -0.0015445000026375055 -0.8849700093269348 -0.23288999497890472 0.1327199935913086 -1.281599998474121 0.4198499917984009 0.9182100296020508 -0.8499199748039246 0.016217999160289764 0.9186300039291382 0.6792200207710266 0.7754999995231628 0.8697500228881836 0.4151400029659271 1.4605000019073486 -1.8282999992370605 -0.06967499852180481 0.7635800242424011 0.2573400139808655 0.19238999485969543 0.6679400205612183 -0.01732500083744526 0.33258000016212463 -0.02241699956357479 -0.8784599900245667 1.6354000568389893 0.34404999017715454 -0.05552100017666817 1.144700050354004 -0.6092399954795837 -1.3050999641418457 1.1717000007629395 -0.3202599883079529 0.8006500005722046 -0.2603200078010559 0.8993399739265442 0.5279600024223328 0.013172999955713749 0.795229971408844 1.424299955368042 -0.20319999754428864 -0.42065000534057617 0.14541000127792358 0.20679999887943268 -0.8929200172424316
shirts 0.1078300029039383 -1.5973999500274658 0.2880299985408783 0.007901200093328953 0.19279000163078308 -0.2644599974155426 1.1136000156402588 0.13802999258041382 0.5747500061988831 -0.3570399880409241 0.2844400107860565 1.0058000087738037 -2.933199882507324 0.9208300113677979 -0.6089400053024292 0.29440000653266907 -1.0579999685287476 -1.1033999919891357 -0.3823600113391876 -0.1466600000858307 -0.4727399945259094 0.0757569968700409 0.8053900003433228 -0.6847299933433533 -0.29495999217033386 0.6807600259780884 0.2656500041484833 -0.20294000208377838 -0.5334399938583374 -1.5 -0.04843499884009361 1.0424000024795532 0.6122499704360962 -0.2927800118923187 1.2257000207901 -1.6663000583648682 -0.5437399744987488 -0.17479999363422394 0.03641799837350845 0.2919299900531769 0.3772200047969818 -0.1787700057029724 -0.03975500166416168 -0.3322199881076813 0.1836100071668625 -0.5371699929237366 1.2317999601364136 -0.2238900065422058 -0.12907999753952026 -0.3372200131416321
writing 0.8105700016021729 0.4166100025177002 0.5328199863433838 0.3646799921989441 1.2347999811172485 0.0783429965376854 1.7691999673843384 -0.9145299792289734 -0.2081799954175949 -0.6109899878501892 0.027525000274181366 -0.04262299835681915 -3.6956000328063965 -0.35888001322746277 -1.1345000267028809 -0.832040011882782 0.5436199903488159 0.2759599983692169 -0.6769000291824341 0.1701499968767166 -0.6294599771499634 0.7956699728965759 -0.2532700002193451 0.0947979986667633 -0.6011899709701538 0.7505199909210205 0.3059999942779541 0.047979000955820084 0.3034999966621399 0.27667000889778137 0.0543689988553524 -0.3631500005722046 -0.51774001121521 -0.09174200147390366 0.20482000708580017 0.13788999617099762 -0.007753899786621332 0.548740029335022 1.2640000581741333 -0.7041699886322021 0.2137099951505661 0.6470299959182739 0.19801999628543854 0.42298001050949097 0.8573200106620789 -0.05150999873876572 -0.6317499876022339 0.5318999886512756 -1.2799999713897705 -1.1095999479293823
containers -0.24952000379562378 -0.2858799993991852 -0.38982999324798584 0.476500004529953 0.7209299802780151 -0.4799000024795532 -1.055400013923645 -0.9739300012588501 0.5202199816703796 -0.6287099719047546 0.9128999710083008 -0.20083999633789062 -1.3633999824523926 0.19651000201702118 -0.05839899927377701 0.5032399892807007 0.5591300129890442 -0.6055099964141846 0.8691400289535522 0.04011400043964386 -1.114799976348877 -0.5104799866676331 -0.08895500004291534 -0.2384900003671646 0.2015399932861328 0.6061699986457825 -0.6510599851608276 0.13023999333381653 0.17313000559806824 -0.20336000621318817 0.7299900054931641 0.4532099962234497 -0.10958000272512436 0.33371999859809875 0.21915000677108765 -1.2742999792099 -0.08129499852657318 0.59934002161026 -0.3391200006008148 0.8151299953460693 0.7797099947929382 0.8210999965667725 -0.9683399796485901 -0.7517099976539612 0.40678998827934265 -0.07600700110197067 0.27573999762535095 0.3783699870109558 0.026931000873446465 0.17643000185489655
fi -0.3648099899291992 0.4879100024700165 -1.2295000553131104 -0.24053999781608582 -0.08833999931812286 -0.5356699824333191 -0.8328199982643127 0.009134200401604176 0.5115000009536743 1.1614999771118164 -1.1363999843597412 -0.20291000604629517 -2.6214001178741455 0.05891500040888786 0.35352998971939087 -0.260699987411499 0.22544999420642853 0.056418001651763916 -0.5158299803733826 0.21484999358654022 -0.9143099784851074 0.6728600263595581 -0.1441500037908554 0.6966099739074707 -0.3397899866104126 -0.6641499996185303 0.34926000237464905 0.27344998717308044 0.04938099905848503 0.8057600259780884 0.9512799978256226 0.3380900025367737 0.6184200048446655 0.3163500130176544 -0.11087000370025635 0.49720001220703125 -0.2537199854850769 -0.47617998719215393 -0.6366299986839294 0.1069599986076355 -1.5913000106811523 0.7883800268173218 0.13269999623298645 0.43296998739242554 -0.33590999245643616 0.259909987449646 0.030042000114917755 0.11494000256061554 0.676069974899292 0.4086500108242035
flatware -1.0829999446868896 -1.4383000135421753 0.674049973487854 -0.010844999924302101 0.5434100031852722 -0.1228799968957901 -1.3341000080108643 -0.7154800295829773 0.7772499918937683 -1.3990999460220337 0.47279998660087585 -0.13726000487804413 -0.34275999665260315 -0.4120500087738037 1.0032999515533447 0.9219300150871277 0.771619975566864 1.1475000381469727 0.5192400217056274 -0.5384299755096436 -1.6354000568389893 0.7173600196838379 0.4226900041103363 -1.4229999780654907 -0.350380003452301 0.8275099992752075 0.3378700017929077 -0.36719998717308044 0.2965500056743622 -0.019710000604391098 0.5019299983978271 -0.3004699945449829 1.419800043106079 0.5125700235366821 -0.3478899896144867 -0.9270899891853333 0.15188999474048615 -0.03405199944972992 2.023900032043457 0.24348999559879303 0.41861000657081604 1.2265000343322754 -0.5776399970054626 0.8259400129318237 0.8788099884986877 -0.6146500110626221 -0.13333000242710114 0.4434399902820587 0.39162999391555786 -0.660040020942688
piece -0.10884000360965729 -0.827530026435852 0.6837000250816345 0.46435999870300293 0.8849499821662903 -0.11749999970197678 0.5034199953079224 -0.11140000075101852 0.2379699945449829 0.20396000146865845 0.3214299976825714 0.546019971370697 -3.5845000743865967 -0.3450999855995178 -0.12804000079631805 0.3130300045013428 0.7266600131988525 0.12120000272989273 -0.02138499915599823 0.3862699866294861 -1.450600028038025 -0.048788998275995255 0.823140025138855 -0.46790000796318054 -0.16288000345230103 0.6803200244903564 -0.31578999757766724 -0.058952998369932175 0.5736899971961975 0.04429500177502632 0.14018000662326813 -0.08096099644899368 -0.02136100083589554 -0.26085999608039856 0.13794000446796417 0.3071399927139282 0.09595400094985962 -0.6890100240707397 1.1093000173568726 -0.4645499885082245 -0.7966899871826172 0.042541999369859695 -0.30660000443458557 -0.0682239979505539 0.6549500226974487 0.2867699861526489 0.5131300091743469 0.5526400208473206 -0.5200700163841248 -0.4753899872303009
hockey 1.405900001525879 -0.03090200014412403 0.4283500015735626 -0.8440799713134766 -0.5089399814605713 0.8615000247955322 0.9442099928855896 0.21548999845981598 -0.06642600148916245 -0.5898299813270569 0.3321300148963928 0.31654998660087585 -3.139400005340576 0.7015399932861328 0.475849986076355 -0.07324100285768509 0.2757999897003174 -0.1941400021314621 0.09888599812984467 0.6190699934959412 0.914870023727417 1.1101000308990479 1.1217000484466553 -0.6895400285720825 0.5673800110816956 -0.05944399908185005 0.16200000047683716 -0.08000700175762177 -0.8307899832725525 -0.8390399813652039 0.23994000256061554 -0.9437699913978577 0.4321199953556061 -0.2789199948310852 1.4865000247955322 -0.7774699926376343 0.6156100034713745 -0.13057999312877655 0.0022799998987466097 1.2941999435424805 -0.5033000111579895 -0.05682399868965149 0.038051001727581024 0.6597800254821777 0.7248700261116028 0.34387001395225525 0.42702001333236694 0.2772800028324127 0.4056699872016907 -0.2430499941110611
diapering -1.6857000589370728 0.10610000044107437 -0.182669997215271 0.23259000480175018 0.7757800221443176 0.4020099937915802 -0.5442600250244141 0.20994000136852264 1.4996000528335571 -0.9395800232887268 -0.6964300274848938 0.0785060003399849 -0.21246999502182007 0.10617999732494354 -0.051336999982595444 1.2213000059127808 -0.23904000222682953 0.5023099780082703 0.32528001070022583 1.291599988937378 -1.361899971961975 0.0977109968662262 0.4465399980545044 0.4417400062084198 0.13660000264644623 2.0543999671936035 -0.010954000055789948 0.6142100095748901 0.28231000900268555 0.322160005569458 0.8676699995994568 0.18811999261379242 1.5436999797821045 0.18314999341964722 -0.1657000035047531 -0.713670015335083 0.6265199780464172 0.4916499853134155 0.007880600169301033 -0.5689799785614014 0.5236999988555908 0.6378399729728699 -0.6383900046348572 0.2045699954032898 0.46970999240875244 0.7853599786758423 0.13232000172138214 0.7690399885177612 1.1520999670028687 -0.6642100214958191
animal -0.2666800022125244 -0.3034200072288513 -1.24590003490448 -0.32137998938560486 0.4846999943256378 -0.5100100040435791 0.49533000588417053 0.0016430000541731715 0.3494899868965149 -0.8077099919319153 -0.09144199639558792 -0.005934000015258789 -3.400099992752075 0.19405999779701233 0.6698499917984009 0.44119998812675476 0.16700999438762665 -0.6574599742889404 0.8162400126457214 -0.4936000108718872 -0.12809999287128448 0.6226199865341187 0.24347999691963196 -0.3610599935054779 -0.02728400006890297 -1.0054999589920044 -0.6672700047492981 0.28560999035835266 0.5407099723815918 -0.2414499968290329 -0.048604000359773636 -0.40494000911712646 0.332830011844635 -0.4939900040626526 -0.2685000002384186 -0.4993700087070465 -0.6131799817085266 -0.4196600019931793 -0.7878000140190125 -1.0710999965667725 -1.0220999717712402 -0.9268900156021118 -0.0035013998858630657 -0.4738999903202057 0.4293299913406372 1.3281999826431274 1.225100040435791 1.0162999629974365 -0.30000001192092896 -0.7040200233459473
doll -1.3904999494552612 -0.01254700031131506 -0.1716800034046173 0.8942199945449829 -0.4047200083732605 -0.6732500195503235 0.5534499883651733 0.11328999698162079 0.4084100127220154 -0.07269500195980072 -0.5806699991226196 1.2793999910354614 -2.804800033569336 -0.17093999683856964 -0.13649000227451324 0.2601200044155121 -0.034991998225450516 -0.09241300076246262 -0.07974400371313095 0.5608800053596497 -0.6380199790000916 -0.6023499965667725 0.6503300070762634 0.43189001083374023 -0.1912200003862381 0.9788500070571899 -0.6166700124740601 -0.23799000680446625 0.8244199752807617 -0.6380100250244141 0.04503900185227394 0.2604900002479553 0.30820000171661377 -0.6846200227737427 -0.6304699778556824 -0.6097599864006042 0.4918299913406372 -0.06979300081729889 -0.009450400248169899 -0.4057900011539459 -0.7238100171089172 -0.6685500144958496 0.09013699740171432 1.2417000532150269 0.13594000041484833 0.6407999992370605 0.4068099856376648 -0.2599300146102905 -0.049598000943660736 -0.08847899734973907
trading 0.3362500071525574 -0.19762000441551208 -0.8005800247192383 -0.2066899985074997 1.1693999767303467 0.5206599831581116 0.026419000700116158 -0.4902400076389313 0.7304900288581848 -1.4011000394821167 0.1758899986743927 0.8568199872970581 -2.2662999629974365 0.11366000026464462 0.03005800023674965 -0.8196600079536438 0.43421998620033264 0.5374199748039246 0.7948499917984009 -0.5786700248718262 -0.04453599825501442 -0.4167400002479553 0.7749199867248535 -0.3671000003814697 -1.4205000400543213 0.5159000158309937 0.35155999660491943 -0.47626999020576477 -0.3218599855899811 -0.31672000885009766 0.4554300010204315 -0.5126100182533264 -0.36441001296043396 0.18911999464035034 0.8019199967384338 -0.5587700009346008 0.41769999265670776 0.853950023651123 1.0504000186920166 -0.45243000984191895 -0.7589300274848938 -0.34529000520706177 0.7508500218391418 0.005539900157600641 0.6474000215530396 -0.9412199854850769 -1.497499942779541 0.43658000230789185 -0.1125200018286705 1.0317000150680542
rv -0.4061700105667114 0.23262999951839447 -0.8428599834442139 -0.0374779999256134 -0.29256999492645264 -0.2254199981689453 -0.33994001150131226 -0.210549995303154 0.8514099717140198 -0.8540899753570557 0.42677000164985657 -0.5199800133705139 -2.1828999519348145 0.11388000100851059 0.7055100202560425 0.2746100127696991 -0.005143799819052219 0.7333800196647644 -0.3229700028896332 1.1103999614715576 -0.6886199712753296 -1.2222000360488892 0.6059399843215942 0.12645000219345093 0.2932499945163727 0.558210015296936 0.08017999678850174 0.4465700089931488 0.35422998666763306 0.49696001410484314 0.5785999894142151 -0.010274999774992466 0.6306899785995483 0.5087400078773499 0.9658499956130981 -0.6424700021743774 -0.11918000131845474 -0.1334500014781952 -0.05154699832201004 -0.06340000033378601 -0.05846799910068512 0.8160799741744995 0.7529100179672241 -0.6033700108528137 0.33906999230384827 0.25099000334739685 -0.03657300025224686 -0.3669399917125702 0.5464199781417847 0.0024916999973356724
sticker -0.413129985332489 -0.32460999488830566 0.29517000913619995 -0.07162799686193466 0.32124000787734985 -0.5338000059127808 0.7285299897193909 -0.30621999502182007 0.7965499758720398 0.24819999933242798 1.6878999471664429 0.641539990901947 -2.4042999744415283 0.21716000139713287 0.1422799974679947 0.6632800102233887 0.32850000262260437 0.32861000299453735 0.41110000014305115 0.8812900185585022 -1.5146000385284424 -0.1465499997138977 -0.4389599859714508 -0.3968200087547302 0.1558700054883957 0.2345699965953827 -0.8561300039291382 0.28891998529434204 -0.6287099719047546 -0.03432900086045265 -0.07027799636125565 -0.03522900119423866 -0.46456998586654663 -0.9163699746131897 0.07848799973726273 -0.9206699728965759 0.830839991569519 -0.6656699776649475 -0.2965399920940399 -0.4413599967956543 0.15372000634670258 -0.18894000351428986 0.4123600125312805 0.007304999977350235 0.7781299948692322 0.0027467000763863325 0.2710700035095215 -1.1131999492645264 0.6200799942016602 -0.3363099992275238
pencil -0.7717999815940857 -0.5110899806022644 0.5098299980163574 0.7588899731636047 0.20013999938964844 -0.6021400094032288 1.2417999505996704 -0.6783199906349182 0.29646000266075134 1.068600058555603 0.5699300169944763 0.6966500282287598 -2.5023000240325928 -0.040863998234272 -0.7287499904632568 0.21367999911308289 -0.05994199961423874 -0.1595900058746338 0.2093600034713745 -0.05046600103378296 -1.0966999530792236 1.5562000274658203 1.3007999658584595 -0.5305200219154358 -0.3521299958229065 0.0786610022187233 -0.5419700145721436 0.023941000923514366 0.4554100036621094 0.1698800027370453 0.4361400008201599 -0.33072999119758606 0.8755300045013428 -1.3708000183105469 -0.11015000194311142 -0.3423900008201599 0.23294000327587128 0.7748000025749207 1.2489999532699585 -0.09713000059127808 0.4776799976825714 0.15560999512672424 -0.3453899919986725 0.23089000582695007 0.9394400119781494 -0.9717100262641907 -0.1179800033569336 0.4327700138092041 0.17527000606060028 -0.21359999477863312
drawings 0.11148999631404877 0.1776600033044815 0.353769987821579 0.4626300036907196 1.4598000049591064 -1.4163000583648682 1.0618000030517578 -1.2337000370025635 -0.7228500247001648 -0.14782999455928802 0.5367400050163269 0.902209997177124 -2.019200086593628 0.19222000241279602 -0.6817399859428406 -0.2470099925994873 -0.05099700018763542 -0.6434800028800964 -0.05593699961900711 0.07607900351285934 -0.5516499876976013 0.2247299998998642 0.5305299758911133 -0.18460999429225922 -1.0815000534057617 0.8379999995231628 -0.9447600245475769 0.6361700296401978 0.618369996547699 -0.6305599808692932 0.5892999768257141 -0.06329900026321411 0.28474000096321106 -0.7033799886703491 0.01603499986231327 -0.577970027923584 0.19773000478744507 0.243599995970726 0.7535300254821777 0.1326500028371811 1.299399971961975 -0.6087999939918518 0.023819999769330025 0.5155100226402283 -0.4752199947834015 0.0329819992184639 0.07118500024080276 -0.063509002327919 -0.6229000091552734 -0.5959399938583374
math 1.8111000061035156 0.3906500041484833 -0.10704000294208527 -0.09379599988460541 0.3469400107860565 0.9815599918365479 1.1841000318527222 -0.2937999963760376 -0.0004924099775962532 0.8564000129699707 -0.4782100021839142 -0.674049973487854 -3.22160005569458 0.4930199980735779 -0.3392300009727478 -0.045191001147031784 0.15453000366687775 -0.28439998626708984 -1.1009999513626099 0.5841699838638306 -0.8880599737167358 1.3770999908447266 0.777400016784668 0.2669599950313568 -0.7786999940872192 -0.4638400077819824 0.1990099996328354 -0.7629200220108032 0.7181000113487244 0.4134199917316437 0.5158100128173828 -1.184999942779541 -0.05694200098514557 -1.100600004196167 -0.8453699946403503 0.1993899941444397 -0.4242199957370758 0.1590999960899353 1.4688999652862549 -0.4671800136566162 -0.26820001006126404 0.44475001096725464 -0.3940599858760834 -0.3352600038051605 0.4107699990272522 -0.871749997138977 -0.7735499739646912 0.5328400135040283 -0.33278998732566833 -0.5372700095176697
pouch -1.7115000486373901 -0.9345099925994873 -0.3003099858760834 0.8327500224113464 -0.0098946001380682 -0.21470999717712402 -0.5323299765586853 -0.16022999584674835 1.2510000467300415 0.1348000019788742 0.39638999104499817 0.35815000534057617 -1.302899956703186 -0.716480016708374 -0.3045800030231476 0.69964998960495 -0.6342200040817261 -0.7261300086975098 0.7550299763679504 -0.13314999639987946 -1.6848000288009644 -0.36169999837875366 1.4153000116348267 0.13802999258041382 -0.11421000212430954 1.1920000314712524 -0.2928600013256073 0.05874300003051758 -0.1549299955368042 -0.11195000261068344 0.5630699992179871 -0.264629989862442 0.20660999417304993 -1.148300051689148 0.44376999139785767 -1.2470999956130981 0.36476001143455505 0.42193999886512756 0.6678699851036072 -0.057677000761032104 -0.2624000012874603 0.5493599772453308 -0.6445000171661377 -0.3207300007343292 0.7865300178527832 -0.25349000096321106 0.4730199873447418 -0.2786400020122528 -0.07912799715995789 -0.03741699829697609
tests 1.0121999979019165 0.877590000629425 -0.7636399865150452 -0.06447900086641312 0.6100000143051147 0.7680100202560425 0.41672998666763306 -0.9527300000190735 -0.07218100130558014 -0.24990999698638916 0.409280002117157 -0.6742200255393982 -2.8861000537872314 1.5928000211715698 -0.09567400068044662 -0.10446000099182129 -0.5328599810600281 -0.35683000087738037 -0.403329998254776 -0.27772998809814453 -0.7321599721908569 1.1857000589370728 0.5936800241470337 -0.2988399863243103 -0.3231799900531769 0.24459999799728394 0.09305299818515778 0.10858000069856644 -0.022672999650239944 0.6665899753570557 0.3824799954891205 -0.5913199782371521 0.47102001309394836 -0.34474000334739685 0.1970299929380417 -0.03905399888753891 -0.9048200249671936 0.6408200263977051 0.6990699768066406 -0.09470999985933304 1.0733000040054321 -0.18931999802589417 -0.39741000533103943 0.19628000259399414 0.7183799743652344 -1.0374000072479248 -0.7340099811553955 -0.020440999418497086 -0.5537700057029724 0.22327999770641327
suit -0.9220399856567383 -0.8868899941444397 -0.08344800025224686 0.7029100060462952 0.2308499962091446 0.1951799988746643 0.8615400195121765 0.6153900027275085 1.038699984550476 0.34509000182151794 0.18027999997138977 0.7113000154495239 -2.819700002670288 0.5055400133132935 0.2308100014925003 0.7596099972724915 -0.4702799916267395 -0.3865799903869629 -0.7980899810791016 -0.07086200267076492 0.23319000005722046 -0.46230000257492065 0.8857499957084656 -0.2833299934864044 -0.2736000120639801 0.44988998770713806 0.1311500072479248 0.5628799796104431 -0.45430999994277954 -0.11981000006198883 0.33528000116348267 1.1313999891281128 -0.07905600219964981 -1.2331000566482544 0.7565500140190125 -0.1762399971485138 -0.06912499666213989 0.1397700011730194 0.6007000207901001 -0.5980899930000305 -0.31224000453948975 -0.679419994354248 0.03421099856495857 0.45649999380111694 0.6187700033187866 0.23300999402999878 -0.016282999888062477 0.1434900015592575 0.040706999599933624 -0.749239981174469
messenger -0.20938000082969666 -0.3490599989891052 -1.1815999746322632 0.7409200072288513 -0.4786500036716461 -0.5610600113868713 0.09880799800157547 -0.710129976272583 0.3340499997138977 -0.3381099998950958 0.7680100202560425 0.35732001066207886 -1.7094000577926636 -0.5515000224113464 -0.995989978313446 -0.013691999949514866 -0.41442999243736267 0.5929999947547913 0.864359974861145 -0.06346199661493301 -1.5132999420166016 -0.30687999725341797 -0.5965499877929688 -0.9653599858283997 -0.7125399708747864 -0.8254600167274475 -0.26469001173973083 -1.2851999998092651 0.26535001397132874 0.11751999706029892 -0.8309000134468079 -0.45502999424934387 0.48879000544548035 -1.3208999633789062 0.5037299990653992 0.5633599758148193 0.49303001165390015 0.017676999792456627 -0.3022199869155884 -0.2951900064945221 0.1074099987745285 0.36114001274108887 -0.14675000309944153 -0.05721699818968773 0.1716500073671341 -0.3151400089263916 0.08546999841928482 -0.22526000440120697 -0.05884400010108948 0.08953599631786346
dolls -0.955780029296875 0.47718000411987305 -0.7376400232315063 1.2345999479293823 -0.23906999826431274 -0.4011400043964386 0.8898400068283081 -0.10738000273704529 0.18956999480724335 -0.6169099807739258 -0.24142999947071075 0.8425099849700928 -2.484499931335449 0.14353999495506287 -0.4091799855232239 -0.6620500087738037 -0.8567100167274475 -0.43046000599861145 0.3041999936103821 0.8024700284004211 -0.48603999614715576 -0.5804799795150757 0.49268999695777893 -0.10019999742507935 0.05509699881076813 0.6846299767494202 -0.8573499917984009 0.5884600281715393 0.0627020001411438 -0.6457599997520447 0.3061800003051758 0.034262001514434814 0.5600399971008301 0.16696999967098236 -0.5624499917030334 -0.8754199743270874 0.390610009431839 -0.277209997177124 -0.022954000160098076 -0.07304800301790237 -0.04255500063300133 -0.34011998772621155 -0.48350000381469727 1.0780999660491943 -0.28676000237464905 0.3920400142669678 0.23006999492645264 -0.14981000125408173 -0.16703000664710999 0.2943100035190582
jeans -0.9546200037002563 -2.1396000385284424 0.5081499814987183 0.1554899960756302 0.013021999970078468 -0.03319999948143959 0.8013499975204468 0.40716999769210815 0.4417800009250641 0.6314299702644348 0.20768000185489655 0.8050699830055237 -2.662899971008301 0.8739299774169922 -0.8892499804496765 0.2339800000190735 -0.6698899865150452 -1.0525000095367432 -0.37452998757362366 -0.2815999984741211 -0.2556700110435486 -0.07891300320625305 0.5451300144195557 -0.6457800269126892 -0.3544900119304657 -0.20608000457286835 0.09965900331735611 0.3244200050830841 -0.6881099939346313 -0.963670015335083 -0.07686100155115128 1.032099962234497 0.8946400284767151 -0.5857499837875366 0.28957000374794006 -0.7142900228500366 -0.6498799920082092 0.40158000588417053 0.031808000057935715 0.48864999413490295 -1.0360000133514404 0.26322999596595764 -0.9208599925041199 -0.42614999413490295 0.005504199769347906 -1.0779000520706177 0.8655099868774414 0.7650499939918518 -0.3213199973106384 -0.8591799736022949
hooded -1.1233999729156494 -1.4630999565124512 -0.11601000279188156 0.3871999979019165 -1.0233999490737915 -0.9423199892044067 -0.021769000217318535 0.3308500051498413 0.333730012178421 -0.9709799885749817 -0.0911799967288971 0.9737399816513062 -0.7520599961280823 0.15849000215530396 0.32471001148223877 -0.14776000380516052 -0.4300200045108795 0.09114400297403336 0.21904000639915466 -0.283050000667572 -1.2704999446868896 -0.12430000305175781 0.7774800062179565 -1.0634000301361084 0.29864999651908875 1.7457000017166138 0.3280799984931946 0.32069000601768494 -0.6977699995040894 0.4335800111293793 0.509630024433136 0.9994800090789795 0.9811199903488159 -0.13168999552726746 0.6142100095748901 -1.8634999990463257 -0.6368399858474731 0.10066000372171402 0.7208700180053711 -0.47953999042510986 0.12586000561714172 -0.2546600103378296 0.6361799836158752 0.04676400125026703 0.8859300017356873 0.3134700059890747 1.4952000379562378 0.258789986371994 0.3770900070667267 -0.4880400002002716
racquets 0.31262001395225525 -0.4390000104904175 0.26782000064849854 0.08259599655866623 0.42113998532295227 -0.2305299937725067 -0.4379200041294098 -0.25481000542640686 -0.247529998421669 -1.313599944114685 0.16936999559402466 -0.2561599910259247 -0.04180999845266342 0.09310200065374374 0.8878800272941589 -0.6770300269126892 0.1069599986076355 -0.6499699950218201 -0.27281999588012695 -0.49178001284599304 -0.4215700030326843 0.7625799775123596 0.5932599902153015 -0.6220800280570984 -0.7668399810791016 0.982420027256012 0.34762999415397644 -0.2191299945116043 -0.5712699890136719 -0.984529972076416 1.2888000011444092 -0.7778900265693665 0.5436400175094604 -0.25505000352859497 -0.16338999569416046 -0.9635999798774719 1.0986000299453735 -0.09472499787807465 1.356600046157837 0.9770100116729736 1.472599983215332 0.30720001459121704 -0.48142001032829285 0.6353700160980225 0.6160299777984619 -0.22949999570846558 0.2522299885749817 0.0019242999842390418 0.4517199993133545 -0.4158099889755249
bike -0.7450799942016602 -0.5838599801063538 0.06524500250816345 -1.6461000442504883 -0.0035476998891681433 -0.19543999433517456 0.4936000108718872 -0.5757200121879578 0.8080800175666809 -0.48423001170158386 -0.22840000689029694 0.9504299759864807 -3.365600109100342 0.5060499906539917 0.42559000849723816 0.6438199877738953 -0.558929979801178 -0.08175099641084671 -0.7768499851226807 0.17002999782562256 -0.3492499887943268 0.1076899990439415 0.7903500199317932 -0.37584999203681946 -0.3314099907875061 0.025738000869750977 -1.019700050354004 0.3629299998283386 0.08085600286722183 0.0925149992108345 0.41457998752593994 -0.08750399947166443 1.2309999465942383 -0.8590899705886841 0.5323899984359741 0.41176000237464905 0.43911999464035034 0.22356000542640686 -0.49439001083374023 -0.34637001156806946 -1.0175000429153442 1.3560999631881714 -0.5093399882316589 -0.09287700057029724 0.27695998549461365 0.5013999938964844 -0.19548000395298004 0.889739990234375 0.5590800046920776 0.26464998722076416
camcorders -1.2200000286102295 -0.5118200182914734 0.24999000132083893 -0.20352999866008759 -0.929099977016449 -0.10599000006914139 -0.5352500081062317 -1.4003000259399414 -0.5010300278663635 -1.0764000415802002 0.6929699778556824 0.6992300152778625 -1.160099983215332 1.5434999465942383 0.29135000705718994 0.0506879985332489 0.8814799785614014 0.7699499726295471 0.7471200227737427 1.4026999473571777 -1.0128999948501587 0.7605000138282776 -0.20507000386714935 -0.1415099948644638 -1.9919999837875366 1.0454000234603882 -1.2517000436782837 0.7616199851036072 -0.5290499925613403 0.8103600144386292 -0.9075800180435181 -0.4605399966239929 0.3942900002002716 0.2559700012207031 -0.5263400077819824 -1.1394000053405762 0.1098100021481514 -0.17447000741958618 0.22996999323368073 -0.7488399744033813 -0.3233500123023987 2.206899881362915 0.2545599937438965 -0.11698000133037567 -1.9515999555587769 -1.8975000381469727 -1.1692999601364136 0.9174299836158752 -0.3379899859428406 1.2683000564575195
studio -0.7444800138473511 0.497079998254776 0.3651700019836426 -0.4979900121688843 0.7225900292396545 -0.11726000159978867 1.0111000537872314 -0.3361699879169464 0.4144200086593628 -0.36972999572753906 0.09058000147342682 0.6754900217056274 -2.8255999088287354 0.19592000544071198 -0.02602599933743477 -0.623960018157959 0.11557000130414963 0.5580899715423584 -1.2055000066757202 0.23473000526428223 -0.9172099828720093 -0.7672600150108337 -0.3736500144004822 -0.45629000663757324 -0.18914000689983368 -0.20159000158309937 0.0289939995855093 0.025297999382019043 -0.1897200047969818 0.19912000000476837 -0.07486200332641602 -0.44846999645233154 -0.8174399733543396 -0.23837999999523163 0.9299899935722351 -0.5362899899482727 0.1634099930524826 0.02145799994468689 0.6579300165176392 0.5378299951553345 -1.2710000276565552 1.0700000524520874 -0.8263999819755554 0.5840799808502197 -0.38179999589920044 0.982479989528656 0.15272000432014465 0.06524600088596344 -0.598330020904541 -0.5855900049209595
porcelain -0.8285999894142151 -1.0223000049591064 0.9624900221824646 1.5242999792099 -0.037094999104738235 -0.8745099902153015 -0.8029099702835083 -0.13585999608039856 0.7497900128364563 -0.7954300045967102 -0.05195099860429764 0.04745500162243843 -1.4953999519348145 -0.39045000076293945 0.5022000074386597 0.19997000694274902 0.1734900027513504 0.7654100060462952 0.8553299903869629 0.886709988117218 -1.4183000326156616 -0.10289999842643738 0.9883000254631042 -0.4597899913787842 0.4213399887084961 1.4739999771118164 -1.3691999912261963 0.3684299886226654 0.5386599898338318 -0.06914199888706207 1.1433000564575195 -0.04233900085091591 0.09317000210285187 -0.22649000585079193 0.015728000551462173 -0.8216599822044373 0.7216600179672241 0.3394300043582916 0.3322699964046478 0.8196499943733215 -0.13996000587940216 0.0195080004632473 -0.07937999814748764 0.6757400035858154 0.013837000355124474 0.27950000762939453 0.9960600137710571 0.13798999786376953 0.5691400170326233 -0.12225999683141708
cross -0.5544499754905701 -0.5680599808692932 0.04099300131201744 -0.5990800261497498 0.06685800105333328 -0.571399986743927 0.39625000953674316 -0.25255000591278076 0.13042999804019928 -0.07952500134706497 -0.018667999655008316 0.45728999376296997 -3.6610000133514404 -0.3022100031375885 -0.26107001304626465 0.47196000814437866 -0.21404999494552612 0.0380450002849102 0.3106600046157837 -0.5904099941253662 0.12020000070333481 0.21416999399662018 0.30101001262664795 -0.8642299771308899 0.15713000297546387 -0.018463000655174255 -0.638670027256012 0.04657299816608429 0.28828001022338867 0.22583000361919403 0.5091300010681152 -0.3250499963760376 0.8515300154685974 -0.2648099958896637 0.7943800091743469 -0.12984000146389008 -0.18337999284267426 0.29385998845100403 0.8073599934577942 -0.10645999759435654 -0.40478000044822693 -0.0327409990131855 0.29038000106811523 -0.14629000425338745 0.2619599997997284 -0.12856000661849976 0.3966299891471863 0.2631700038909912 1.0454000234603882 0.006600500084459782
table 0.4776400029659271 -0.6665199995040894 0.8031700253486633 0.3254599869251251 1.0788999795913696 0.1324699968099594 0.5596100091934204 -0.12364999949932098 0.2858099937438965 -0.10016000270843506 0.09244900196790695 0.21299000084400177 -3.1914000511169434 -0.04714899882674217 -0.028738999739289284 0.98444002866745 0.2552500069141388 -0.2682499885559082 -0.7623500227928162 -0.2220200002193451 -0.6741999983787537 -1.1263999938964844 0.6404500007629395 -0.7718999981880188 0.12857000529766083 -0.08913400024175644 -0.8389099836349487 -0.47501999139785767 -0.055479999631643295 -0.2562600076198578 0.6815000176429749 -0.03273800015449524 -0.5291500091552734 -0.7575500011444092 0.45719999074935913 -0.05001100152730942 0.696399986743927 0.28321999311447144 1.2462999820709229 0.4100799858570099 -0.3405500054359436 1.0341999530792236 -0.48037999868392944 0.15560999512672424 1.1468000411987305 0.10416000336408615 0.3446899950504303 0.18579000234603882 0.8108999729156494 -0.4292300045490265
keyboards 0.48860999941825867 0.28106001019477844 -0.834879994392395 0.6326599717140198 -0.3269500136375427 0.2573600113391876 0.5502499938011169 -0.6066799759864807 0.34602001309394836 -0.747759997844696 0.5863400101661682 0.1865299940109253 -1.121000051498413 -0.2396100014448166 -0.2481199949979782 -1.3147000074386597 -0.33232998847961426 -0.7565199732780457 0.7350900173187256 -0.2088800072669983 -0.946940004825592 0.4779900014400482 0.897849977016449 -0.6804500222206116 -1.3624000549316406 0.7832599878311157 -0.5967000126838684 0.18362000584602356 -0.002964199986308813 -0.044433001428842545 -0.04191499948501587 -0.31134000420570374 0.36316999793052673 -0.6849499940872192 0.09278599917888641 -0.9801499843597412 0.07744099944829941 -0.8977699875831604 0.9284700155258179 0.7517200112342834 1.5961999893188477 1.0369000434875488 -0.9985499978065491 -0.41084998846054077 -0.5778399705886841 -0.13473999500274658 -0.363209992647171 0.28801000118255615 -0.27498000860214233 0.2968299984931946
origami -0.9929800033569336 -0.038440000265836716 0.08984600007534027 0.39559000730514526 0.5949900150299072 -0.27625998854637146 0.24177999794483185 -0.8790900111198425 0.3717699944972992 -0.20468999445438385 0.26315999031066895 0.5835300087928772 -1.0526000261306763 0.17982999980449677 -0.2011599987745285 0.08089499920606613 0.25146999955177307 0.22976000607013702 0.5133799910545349 0.8360099792480469 -1.62909996509552 0.658240020275116 -0.12111999839544296 -0.136230006814003 -0.078855000436306 0.10864999890327454 -0.840470016002655 0.9019700288772583 0.7764099836349487 -0.40748998522758484 0.8143500089645386 -0.10678999871015549 0.6158999800682068 -0.24754999577999115 -0.20780999958515167 -0.25457000732421875 0.4618000090122223 -0.33774998784065247 0.6794000267982483 -0.5255900025367737 0.10365000367164612 -0.52947998046875 -0.7016599774360657 -0.23284000158309937 0.7604900002479553 1.080199956893921 -0.2629700005054474 0.5677700042724609 0.17454999685287476 -0.5686799883842468
panties -1.0532000064849854 -0.6767399907112122 0.6784600019454956 0.5280900001525879 0.6805700063705444 -0.2056100070476532 1.2998000383377075 0.5155500173568726 0.16606000065803528 0.7618700265884399 -0.4981899857521057 0.49344998598098755 -2.1242001056671143 0.6384400129318237 -1.2583999633789062 0.1775600016117096 -0.6449300050735474 -1.343999981880188 0.27483999729156494 -0.25887998938560486 -0.38506999611854553 -0.8843399882316589 0.9856699705123901 0.2569600045681 0.32938000559806824 0.3428399860858917 -0.47130000591278076 0.7475699782371521 -1.8671000003814697 -0.34334999322891235 -0.4181700050830841 1.506100058555603 0.23436999320983887 -0.6486300230026245 0.33623000979423523 -0.5383899807929993 -0.127020001411438 0.8406000137329102 -0.04370100051164627 0.04697500169277191 0.4867100119590759 -0.5045599937438965 0.19614000618457794 0.10386999696493149 1.0240999460220337 -0.47516998648643494 1.5894999504089355 -0.058260999619960785 -0.06542199850082397 0.4262099862098694
diaper -1.322100043296814 -0.8613799810409546 -0.5096700191497803 0.5042999982833862 0.6154299974441528 -0.9590799808502197 0.33441999554634094 0.29447001218795776 0.2885800004005432 -0.45072001218795776 0.1615999937057495 1.2906999588012695 -1.6365000009536743 0.39256998896598816 -0.2974500060081482 0.6920999884605408 -0.2164199948310852 0.16711999475955963 0.12445999681949615 0.7327399849891663 -2.1347999572753906 0.2502799928188324 0.965179979801178 0.44036999344825745 -0.5442299842834473 1.3342000246047974 -0.08505400270223618 0.1207600012421608 -0.43963998556137085 -0.1005999967455864 0.11608999967575073 0.2258400022983551 0.5530400276184082 -1.0604000091552734 -0.4287300109863281 -0.1628199964761734 -0.09104599803686142 0.3122499883174896 0.2718600034713745 0.45364001393318176 0.6324099898338318 0.7428500056266785 -1.145400047302246 0.3750399947166443 0.8741300106048584 -0.07374899834394455 0.6799700260162354 0.3523100018501282 -0.5483099818229675 0.1399099975824356
bowling 0.25920000672340393 0.2569600045681 0.4883800148963928 -1.260599970817566 0.36675000190734863 0.5564600229263306 0.6685199737548828 0.38778001070022583 0.14973999559879303 -0.20675000548362732 -0.2800399959087372 0.30281001329421997 -2.409899950027466 0.412339985370636 0.47995999455451965 0.036713000386953354 0.27632999420166016 -1.2116999626159668 -0.7538099884986877 0.19929000735282898 0.22634999454021454 0.20081999897956848 0.8848599791526794 -0.7942100167274475 -0.1802700012922287 0.13116000592708588 -0.24042999744415283 -0.3853999972343445 -0.20374999940395355 -0.487060010433197 0.724839985370636 -0.182559996843338 0.13576999306678772 -0.46632999181747437 0.2426699995994568 -0.18020999431610107 0.713890016078949 0.021310999989509583 0.724590003490448 0.4231100082397461 -0.33539000153541565 0.10632000118494034 -0.0744360014796257 0.1140500009059906 1.0504000186920166 0.5754500031471252 0.020772000774741173 -0.21096999943256378 0.9847999811172485 -0.15395000576972961
baggy -0.9383299946784973 -1.9361000061035156 0.30156001448631287 0.7834100127220154 -0.217849999666214 0.4650599956512451 0.7351099848747253 0.5133900046348572 0.1806900054216385 -0.33048000931739807 0.11118000000715256 0.6559000015258789 -1.3282999992370605 0.27017998695373535 -0.4200200140476227 -0.02555900067090988 -0.5447900295257568 -1.3451999425888062 -0.8865900039672852 0.2542699873447418 -0.3638800084590912 0.11593999713659286 0.9423800110816956 -0.19329999387264252 -0.1651799976825714 1.1842000484466553 0.06484200060367584 0.630020022392273 -1.0866999626159668 -1.0045000314712524 0.2685700058937073 1.4412000179290771 1.2999999523162842 -0.32190999388694763 0.12762999534606934 -0.7843000292778015 -1.0097999572753906 -0.3890100121498108 0.3779299855232239 0.6015499830245972 0.2378299981355667 -0.0034886999055743217 -0.30823999643325806 -0.4871799945831299 0.7281200289726257 -0.024318000301718712 1.4974000453948975 0.7860999703407288 0.3132300078868866 -0.7406700253486633
slip -0.8196399807929993 0.29982998967170715 0.15730999410152435 0.35175999999046326 0.4462999999523163 -0.0748089998960495 0.5435199737548828 -0.24981999397277832 0.35019999742507935 0.6571900248527527 0.449290007352829 0.25123000144958496 -2.4300999641418457 -0.03842400014400482 -0.6314399838447571 0.7129300236701965 -0.6255999803543091 -0.26052001118659973 -0.6872199773788452 -1.121500015258789 -0.5552099943161011 -0.39667999744415283 0.9837899804115295 -0.10255999863147736 -0.06693000346422195 -0.07517799735069275 -0.002630000002682209 0.4281800091266632 -0.8051699995994568 0.34714001417160034 1.0166000127792358 -0.020661000162363052 0.516730010509491 -0.6241599917411804 0.4769600033760071 0.07314600050449371 -0.3143100142478943 0.1675499975681305 1.0822999477386475 0.08752699941396713 0.03893499821424484 -0.2780500054359436 -0.08406099677085876 -0.1732800006866455 0.5421299934387207 -0.8690500259399414 -0.03897099941968918 0.060398001223802567 0.9179800152778625 0.48148998618125916
bottle -1.30239999294281 -0.24243000149726868 0.6254299879074097 0.6801999807357788 0.11095000058412552 -0.03332199901342392 0.67603999376297 -1.0628999471664429 0.4555099904537201 0.24939000606536865 -0.034995000809431076 0.5062500238418579 -3.478100061416626 -0.5309699773788452 0.14698000252246857 1.0994999408721924 0.9787300229072571 -0.3673900067806244 0.2288299947977066 0.4513300061225891 -1.1714999675750732 -0.34154999256134033 0.9261199831962585 -0.5472800135612488 1.3838000297546387 0.7063000202178955 0.10661999881267548 0.045138001441955566 -0.3433699905872345 0.007919499650597572 0.4915499985218048 1.0355000495910645 -1.1884000301361084 0.11315999925136566 0.42572999000549316 0.3962799906730652 -0.007247100118547678 1.0980000495910645 -0.03645800054073334 1.3329999446868896 -0.03926900029182434 0.4050399959087372 -1.1884000301361084 -0.35468000173568726 0.8194100260734558 -0.38023000955581665 0.44018998742103577 -0.2627600133419037 -0.07773599773645401 0.7757899761199951
plus 0.17194999754428864 -0.7470099925994873 -1.017199993133545 0.495959997177124 0.4597800076007843 0.9945300221443176 -0.17667999863624573 -0.16309000551700592 0.4526199996471405 0.07561399787664413 0.1828400045633316 -0.3024899959564209 -2.910099983215332 -0.10429999977350235 0.09123300015926361 1.7208000421524048 0.3160499930381775 -0.8036100268363953 -1.6532000303268433 0.9100900292396545 0.08388199657201767 -0.9724900126457214 -0.13165999948978424 -0.6232500076293945 -0.983489990234375 -0.5064899921417236 -0.40915000438690186 0.29346001148223877 -0.5295199751853943 0.17258000373840332 0.14610999822616577 -0.23732000589370728 -1.555999994277954 0.09525399655103683 1.215399980545044 -0.030604999512434006 -0.9662399888038635 -0.8942300081253052 1.1655999422073364 -0.023124000057578087 -1.1694999933242798 -0.41165000200271606 -0.6236100196838379 0.4464400112628937 0.025405000895261765 -1.000100016593933 -0.21616999804973602 0.3513000011444092 0.6985899806022644 -0.8831999897956848
chair -0.054090000689029694 -0.8489599823951721 1.2226999998092651 0.41378000378608704 0.11083000153303146 0.04978200048208237 0.17048999667167664 0.322270005941391 0.3421199917793274 -0.7449399828910828 -0.0008556100074201822 0.4495700001716614 -2.8192999362945557 -0.5366500020027161 0.31036001443862915 0.7742699980735779 -0.19992999732494354 0.21748000383377075 -0.4842100143432617 -0.42118000984191895 -0.8458899855613708 -0.5126399993896484 0.8716400265693665 -0.17378999292850494 0.367220014333725 0.6821600198745728 -0.7228900194168091 0.2017499953508377 -0.4680500030517578 0.09666100144386292 0.2246900051832199 0.30358999967575073 -0.265610009431839 -1.1793999671936035 0.21863999962806702 0.11201000213623047 1.0053000450134277 0.6914399862289429 1.2022000551223755 -0.351859986782074 -0.023435000330209732 1.7656999826431274 -0.18788999319076538 0.7317000031471252 1.2803000211715698 0.15756000578403473 0.7688900232315063 0.4860199987888336 0.3262600004673004 -0.3203499913215637
leash -1.7000000476837158 -0.5875800251960754 -0.6978300213813782 0.22356000542640686 -0.4925599992275238 -0.6685500144958496 0.7923099994659424 0.38905999064445496 0.2836799919605255 -0.07456599920988083 0.27324000000953674 1.281599998474121 -1.4248000383377075 -0.4054200053215027 0.501550018787384 0.1360200047492981 -0.5291299819946289 -0.7926200032234192 0.06457400321960449 -0.25512999296188354 -0.31376001238822937 0.5596100091934204 1.2041000127792358 0.07878399640321732 -0.031081000342965126 0.8843600153923035 -0.5321800112724304 0.793150007724762 -0.594980001449585 0.3809100091457367 0.04670599848031998 0.46577998995780945 0.7079600095748901 -0.7059800028800964 -0.1776600033044815 -0.09649299830198288 -0.15007999539375305 0.24748000502586365 0.00778160011395812 -0.6488900184631348 0.9911800026893616 0.9968799948692322 0.3561199903488159 -0.1125900000333786 0.8002300262451172 0.09971600025892258 0.7555400133132935 0.7825499773025513 0.9873700141906738 0.4954400062561035
equipment -0.13274000585079193 -0.10119999945163727 -0.5852400064468384 -0.7569599747657776 0.6437600255012512 0.2300799936056137 0.27000001072883606 -0.9027500152587891 1.0799000263214111 -1.253999948501587 0.777180016040802 0.8946200013160706 -2.5873000621795654 0.4889200031757355 1.358299970626831 0.31922999024391174 0.27004000544548035 -0.4390600025653839 -0.17538000643253326 -0.21389000117778778 -0.9594200253486633 0.4241900146007538 0.666379988193512 0.28878000378608704 -0.9041799902915955 0.96288001537323 -0.40672001242637634 0.7084699869155884 0.654770016670227 -0.44822001457214355 0.1675799936056137 -0.7542399764060974 -0.06105799973011017 -0.3833400011062622 1.1805000305175781 -0.9804999828338623 0.37397000193595886 0.881089985370636 0.37777000665664673 -0.30303001403808594 0.5705400109291077 1.3562999963760376 -0.24337999522686005 -0.34106001257896423 0.19673000276088715 0.13531999289989471 0.29357999563217163 0.42379000782966614 -0.6902999877929688 -0.1649799942970276
ceramics -0.30230000615119934 -0.48903000354766846 1.0866999626159668 0.15395000576972961 0.7127000093460083 -0.66948002576828 -0.2851499915122986 -0.49437999725341797 0.5408899784088135 -0.5360900163650513 -0.4891499876976013 -0.5570799708366394 -0.9506400227546692 0.5677099823951721 0.6898999810218811 -0.5424799919128418 0.5525199770927429 0.47839999198913574 -0.1731400042772293 1.0530999898910522 -0.7428900003433228 0.3472599983215332 1.1019999980926514 -0.26708000898361206 -0.12789000570774078 1.378999948501587 0.07685600221157074 0.5695400238037109 0.5229099988937378 -0.5425599813461304 0.5864899754524231 -0.519320011138916 -0.10451000183820724 -1.3588999509811401 -0.579069972038269 -0.8591799736022949 0.3353100121021271 1.2511999607086182 1.2352999448776245 1.3874000310897827 0.6140999794006348 0.18171000480651855 -0.2514500021934509 -0.36111998558044434 -0.1381700038909912 -0.1751600056886673 0.6319900155067444 0.1694200038909912 -0.7012100219726562 0.16919000446796417
cami -0.8961899876594543 0.628000020980835 0.06453000009059906 0.19134999811649323 0.05246800184249878 -0.6195200085639954 -0.9043999910354614 0.4268600046634674 -0.25655999779701233 -1.1929999589920044 -0.4837299883365631 0.1097399964928627 -0.818880021572113 1.0843000411987305 -0.4318999946117401 -1.0 -0.5076599717140198 -0.39660000801086426 -0.13158999383449554 0.2637700140476227 0.3781599998474121 0.03244800120592117 -0.47543999552726746 1.2717000246047974 -0.7206199765205383 -1.632699966430664 0.7571899890899658 -0.09153100103139877 0.026225000619888306 -0.4663800001144409 -0.23684999346733093 0.20680999755859375 -0.2807900011539459 -0.4061700105667114 -0.030375000089406967 0.44756001234054565 0.13244999945163727 1.5714999437332153 -0.5847399830818176 0.3590100109577179 -0.8014100193977356 0.07762199640274048 -0.45758000016212463 0.5892800092697144 -0.013894000090658665 -0.4227199852466583 0.14318999648094177 0.37369000911712646 0.7286900281906128 -1.0435999631881714
instructional 0.12437999993562698 0.3715899884700775 -0.3369300067424774 -0.3596700131893158 1.4696999788284302 -0.10610000044107437 0.8855699896812439 -0.052035000175237656 -0.2614699900150299 -1.3617000579833984 0.21884000301361084 1.270900011062622 -0.6335600018501282 0.7454800009727478 0.37766000628471375 -0.6734099984169006 0.43827998638153076 0.4777800142765045 -0.13274000585079193 0.6424099802970886 -0.9114199876785278 0.511489987373352 0.4668999910354614 -0.5403100252151489 -1.1984000205993652 1.545300006866455 0.6094599962234497 1.2108999490737915 -0.3440000116825104 0.11224000155925751 1.076300024986267 -0.31891998648643494 -0.05564400181174278 -0.913070023059845 0.18668000400066376 -0.3510200083255768 0.7354900240898132 -0.14554999768733978 0.4100300073623657 -0.6635400056838989 0.4964500069618225 1.2379000186920166 -0.16779999434947968 0.4342299997806549 0.02550799958407879 -0.08846200257539749 -0.33474001288414 0.44238001108169556 -0.8224200010299683 -0.811959981918335
illustration 0.0615679994225502 -0.38561999797821045 0.42941001057624817 -0.2293200045824051 1.2897000312805176 -0.7295899987220764 0.7109900116920471 -1.1444000005722046 -0.15012000501155853 -0.30039000511169434 -0.09783100336790085 0.8702200055122375 -1.4780000448226929 0.20298999547958374 -0.7229200005531311 0.01865600049495697 0.5530099868774414 0.5419899821281433 0.021755000576376915 0.5967599749565125 -1.2339999675750732 -0.2692500054836273 0.5100700259208679 -0.6778799891471863 -0.5790600180625916 0.6538900136947632 -0.5781599879264832 1.0640000104904175 0.639739990234375 0.1490200012922287 0.8017200231552124 -0.532480001449585 0.11421000212430954 -1.1476000547409058 0.5077000260353088 -0.628570020198822 0.2839699983596802 0.31158000230789185 0.9114099740982056 -0.7535099983215332 0.4535599946975708 -0.6116499900817871 0.39535999298095703 1.128499984741211 -0.16843000054359436 0.5318599939346313 0.22573000192642212 0.05773400142788887 -0.743340015411377 -1.329699993133545
brewing -0.5128600001335144 -0.3750700056552887 -0.1861400008201599 0.4898500144481659 0.6747400164604187 1.2842999696731567 -0.4756700098514557 -0.8637499809265137 0.521619975566864 -1.5424000024795532 -0.3005400002002716 0.3641499876976013 -2.0566999912261963 0.11873999983072281 0.9930499792098999 -0.0852769985795021 1.3389999866485596 0.269459992647171 0.5466200113296509 0.22943000495433807 0.786270022392273 0.10589999705553055 0.2544499933719635 -0.2902500033378601 0.5034700036048889 1.0530999898910522 -1.0992000102996826 -0.02038699947297573 0.588919997215271 0.7381700277328491 1.1442999839782715 -0.1959799975156784 -0.6537500023841858 -0.3459300100803375 -0.06269700080156326 -0.36805999279022217 0.30608001351356506 0.9092100262641907 0.30803000926971436 1.0568000078201294 0.30987998843193054 0.5891900062561035 0.5844799876213074 0.5849699974060059 0.295989990234375 1.401900053024292 -0.45267999172210693 -0.2117999941110611 -0.184129998087883 0.16358999907970428
stationery -0.17815999686717987 -0.4448300004005432 -0.45023998618125916 0.7151200175285339 0.5751799941062927 -0.8027499914169312 1.0497000217437744 -1.3463000059127808 1.3203999996185303 -0.9879699945449829 -0.3209199905395508 0.6105700135231018 -0.8120700120925903 -0.012117000296711922 0.17239999771118164 0.5366100072860718 -0.4085800051689148 -0.1262499988079071 -0.21751999855041504 0.7976800203323364 -1.0511000156402588 -0.6539099812507629 -0.08709599822759628 -0.26045000553131104 -0.4220399856567383 1.1505000591278076 -0.193340003490448 0.15852999687194824 0.5861200094223022 -0.9298499822616577 0.8320299983024597 -0.2550100088119507 0.3751699924468994 -0.9789000153541565 0.0752829983830452 -0.8813499808311462 0.35218000411987305 0.7898899912834167 0.30180999636650085 -0.3807399868965149 0.7977200150489807 0.4594799876213074 -0.5004799962043762 -0.30226001143455505 1.0758999586105347 0.12314999848604202 -0.21020999550819397 -0.8348600268363953 -0.29241999983787537 -0.5446900129318237
planning 0.25255998969078064 1.2653000354766846 -0.26965001225471497 -0.16929000616073608 0.35354000329971313 0.5286800265312195 0.9592499732971191 -0.6606500148773193 0.9716600179672241 -1.0428999662399292 -0.18424999713897705 0.4823499917984009 -3.184799909591675 1.0289000272750854 -0.022996999323368073 0.2823300063610077 -0.17166000604629517 0.6747400164604187 -0.9351199865341187 -0.22888000309467316 0.1813499927520752 -0.3085800111293793 -1.4127999544143677 0.6062300205230713 -0.13797999918460846 0.8723499774932861 0.4730899930000305 -0.3537899851799011 -0.305620014667511 -0.4314900040626526 0.20965999364852905 -0.3163599967956543 -0.03407499939203262 -0.4666599929332733 0.6365200281143188 -0.041655998677015305 -0.39778000116348267 0.5214499831199646 0.6982700228691101 -0.35398998856544495 -0.6771600246429443 0.3558099865913391 0.4302099943161011 0.034435998648405075 1.1349999904632568 -0.26636001467704773 -0.6719899773597717 0.41971999406814575 -0.28060001134872437 -0.36364999413490295
ipad 0.14203999936580658 0.02999100089073181 -1.2516000270843506 0.3940100073814392 -0.5217300057411194 0.25536999106407166 0.16329999268054962 -0.7432799935340881 1.2627999782562256 0.13235999643802643 0.7261999845504761 0.9651200175285339 -2.6846001148223877 0.3411700129508972 -0.5741000175476074 0.24163000285625458 0.27402999997138977 0.3768399953842163 0.06828799843788147 0.5222799777984619 -0.8069400191307068 -0.3237299919128418 0.2798500061035156 -0.41846001148223877 -1.0420000553131104 -0.6683800220489502 -0.5956500172615051 -0.8674299716949463 0.6567999720573425 -0.20127999782562256 -0.6261600255966187 -0.5729399919509888 -0.48954999446868896 -0.7875699996948242 1.441499948501587 -0.534309983253479 0.7823100090026855 -1.0045000314712524 -0.9939699769020081 -0.23774999380111694 -1.0702999830245972 0.2976300120353699 -1.0448999404907227 -0.004515599925071001 0.9564399719238281 -0.3315599858760834 -0.45587000250816345 -0.37665000557899475 -0.7265200018882751 0.2630999982357025
outdoor -0.1015700027346611 -0.40588998794555664 0.427729994058609 -0.42138999700546265 0.3798399865627289 0.31775999069213867 1.1725000143051147 -0.9127100110054016 0.3419399857521057 -1.0240000486373901 -0.445279985666275 0.8805099725723267 -2.1438000202178955 1.0410000085830688 0.6601999998092651 0.41815999150276184 0.5588899850845337 0.015716999769210815 0.5226600170135498 0.3356499969959259 -0.6552900075912476 -0.7528799772262573 0.4546999931335449 -0.7908999919891357 0.1301400065422058 0.7843999862670898 -1.0908000469207764 1.0781999826431274 -0.794439971446991 0.034664999693632126 0.6245800256729126 -0.364190012216568 0.307779997587204 -0.563319981098175 0.6249200105667114 -1.3061000108718872 0.33730998635292053 0.06918200105428696 0.6839900016784668 0.38082000613212585 -1.5579999685287476 1.320199966430664 -0.22686000168323517 -0.09263700246810913 0.8796899914741516 0.9398400187492371 0.18422000110149384 0.5081300139427185 -0.15384000539779663 -0.3463200032711029
bookmark 0.05774800106883049 -0.7332800030708313 -0.44797998666763306 -0.2720699906349182 0.7416899800300598 -1.243899941444397 0.747160017490387 -1.1985000371932983 0.8500199913978577 -0.22524000704288483 -0.03441699966788292 0.45684000849723816 -1.2767000198364258 -0.904990017414093 -1.059999942779541 0.7048699855804443 0.36667001247406006 0.41238000988960266 0.6520100235939026 -0.011459999717772007 -0.8446599841117859 -0.3449400067329407 -0.3407300114631653 -0.5583000183105469 -0.6803900003433228 0.7533000111579895 -0.10530000180006027 0.8546500205993652 0.876010000705719 0.02192400023341179 0.31049999594688416 0.0367560014128685 0.3609200119972229 -1.0191999673843384 0.4740999937057495 -0.8242700099945068 0.6030799746513367 -0.42645999789237976 0.21389999985694885 -0.34077000617980957 0.5985900163650513 -0.16021999716758728 0.6976799964904785 0.18039000034332275 0.34624001383781433 0.2608700096607208 -0.1451999992132187 -0.6824700236320496 -0.002894599922001362 -0.007745999842882156
locks -0.5122299790382385 -0.8305500149726868 -0.45993998646736145 0.9485300183296204 -0.0734189972281456 -0.549019992351532 0.8616700172424316 -0.3373199999332428 -0.34387001395225525 -0.8694900274276733 -0.033851999789476395 0.4769800007343292 -1.8236000537872314 -0.2671299874782562 -0.12939000129699707 0.04559899866580963 -0.6648200154304504 -0.5297099947929382 -0.06006399914622307 -0.33360999822616577 -0.4675599932670593 -0.6059799790382385 0.18026000261306763 -0.3831599950790405 -0.21188999712467194 0.5064299702644348 -0.48985999822616577 0.6773399710655212 -0.34474998712539673 0.6011899709701538 -0.8170599937438965 0.3261600136756897 -0.03192700073122978 -1.0712000131607056 0.21588000655174255 0.09937500208616257 -0.03200700134038925 0.4883500039577484 0.01381400041282177 0.4619799852371216 0.8523499965667725 0.649399995803833 -0.453249990940094 0.2102700024843216 0.04326299950480461 -1.003600001335144 0.6609799861907959 -0.610729992389679 1.4019999504089355 0.637969970703125
guitars -0.8941500186920166 -0.04398300126194954 0.5299699902534485 0.14725999534130096 0.21257999539375305 -0.03941499814391136 0.8773999810218811 -0.2874299883842468 -0.11343000084161758 -1.1512999534606934 0.4983699917793274 1.212499976158142 -1.6239999532699585 -0.2428400069475174 0.5511900186538696 -0.9881299734115601 -0.14670999348163605 -0.7200000286102295 -0.4351699948310852 0.37261998653411865 -0.3561600148677826 0.503600001335144 0.6136900186538696 -0.24494999647140503 -0.8555799722671509 0.3425300121307373 -0.2729699909687042 0.5527799725532532 0.6099799871444702 -0.8632500171661377 0.8833900094032288 0.5350599884986877 -0.07810799777507782 0.3971500098705292 1.2604000568389893 -0.7561500072479248 0.2674799859523773 -0.7751200199127197 0.7687100172042847 0.9951599836349487 1.5357999801635742 0.4762299954891205 -1.0990999937057495 -0.520359992980957 -1.1629999876022339 0.31038999557495117 -0.0790719985961914 -0.24603000283241272 -0.28922998905181885 -0.4187299907207489
leather -1.3828999996185303 -2.4137001037597656 0.49977999925613403 0.6673399806022644 -0.36798998713493347 -0.5332499742507935 0.289249986410141 -0.35905998945236206 1.1440000534057617 -0.20300999283790588 0.1106799989938736 1.1445000171661377 -2.6731998920440674 -0.46055999398231506 0.35631999373435974 0.008646000176668167 -0.24020999670028687 0.08936399966478348 0.09046600013971329 0.46173998713493347 -1.2574000358581543 -0.39190998673439026 1.2829999923706055 -1.1507999897003174 -0.2801699936389923 0.7488999962806702 -0.396369993686676 0.32899999618530273 -0.19404999911785126 -0.9375799894332886 0.39785000681877136 0.3381899893283844 0.44569000601768494 -0.7961000204086304 0.7156800031661987 -1.3264000415802002 -0.15001000463962555 0.5279800295829773 0.6689299941062927 -0.3119199872016907 -0.6574299931526184 0.36741000413894653 0.15661999583244324 -0.08261699974536896 0.9955199956893921 -0.5368199944496155 0.9750099778175354 0.3325499892234802 0.23962000012397766 -0.8572999835014343
